{"learner":{"attributes":{"scikit_learn":"{\"n_estimators\": 100, \"objective\": \"reg:squarederror\", \"max_depth\": 13, \"learning_rate\": null, \"verbosity\": null, \"booster\": null, \"tree_method\": null, \"gamma\": 0.7952464804253427, \"min_child_weight\": 56, \"max_delta_step\": null, \"subsample\": 0.8707196124910948, \"colsample_bytree\": 0.5268251707077625, \"colsample_bylevel\": 0.3974193711575312, \"colsample_bynode\": 0.6149547091820429, \"reg_alpha\": 0.29491828620826, \"reg_lambda\": 0.12658402728223891, \"scale_pos_weight\": null, \"base_score\": null, \"missing\": NaN, \"num_parallel_tree\": null, \"kwargs\": {}, \"random_state\": null, \"n_jobs\": null, \"monotone_constraints\": null, \"interaction_constraints\": null, \"importance_type\": \"gain\", \"gpu_id\": null, \"validate_parameters\": null, \"_estimator_type\": \"regressor\"}"},"feature_names":["FLAG_OWN_CAR","NAME_EDUCATION_TYPE","DAYS_EMPLOYED","REG_CITY_NOT_LIVE_CITY","AMT_GOODS_PRICE","REG_CITY_NOT_WORK_CITY","DAYS_BIRTH","NAME_INCOME_TYPE","NAME_FAMILY_STATUS","OCCUPATION_TYPE","AMT_INCOME_TOTAL","NAME_HOUSING_TYPE","FLAG_OWN_REALTY","CNT_CHILDREN"],"feature_types":["int","int","float","int","float","int","float","int","int","int","float","int","int","int"],"gradient_booster":{"model":{"gbtree_model_param":{"num_trees":"100","size_leaf_vector":"0"},"tree_info":[0,0,0,0,0,0,0,0,0,0,0,0,0,0,0,0,0,0,0,0,0,0,0,0,0,0,0,0,0,0,0,0,0,0,0,0,0,0,0,0,0,0,0,0,0,0,0,0,0,0,0,0,0,0,0,0,0,0,0,0,0,0,0,0,0,0,0,0,0,0,0,0,0,0,0,0,0,0,0,0,0,0,0,0,0,0,0,0,0,0,0,0,0,0,0,0,0,0,0,0],"trees":[{"base_weights":[5.983991E5,6.070655E5,2.493142E5,4.919636E5,6.320553E5,3.6964994E5,2.4261953E5,4.8976528E5,5.1201788E5,6.3480294E5,6.254148E5,5.3325106E5,4.7464806E5,5.6964194E5,4.975586E5,6.7235556E5,6.010081E5,6.432078E5,5.990984E5,4.6729753E5,5.5522606E5,4.2833628E5,5.0170794E5,5.734716E5,5.2278528E5,5.044119E5,4.3633616E5,6.899428E5,6.0713594E5,6.2627825E5,5.3029256E5,6.5655706E5,5.751239E5,6.1643456E5,5.2884625E5,4.7296303E5,4.5433806E5,4.359858E5,4.1651053E5,5.0936303E5,4.8915838E5,5.089577E5,4.9577672E5,4.2874766E5,4.5163903E5,6.9341625E5,6.782357E5,6.1066194E5,5.936485E5,6.272377E5,6.2117294E5,5.285143E5,5.4191225E5,6.6257775E5,6.379454E5,5.802399E5,5.580227E5,6.2562544E5,5.9444044E5,5.3479994E5,5.1398488E5,4.5318522E5,4.9749172E5,4.269998E5,4.7959653E5,2.631827E5,4.4694612E5,2.5241458E5,4.2601225E5,4.2451597E5,5.3907206E5,4.1946944E5,5.1465234E5,4.629502E5,5.5640475E5,4.57294E5,5.2216956E5,3.8469734E5,4.5684375E5,6.812684E5,7.5630075E5,6.1280625E5,6.950514E5,5.9764394E5,6.660409E5,5.3705175E5,6.0501E5,6.427731E5,6.079574E5,5.809289E5,6.503195E5,5.478516E5,5.1704588E5,4.9852325E5,5.612131E5,6.1372475E5,6.834303E5,5.900839E5,6.58636E5,5.1291253E5,5.9849275E5,5.0861362E5,5.830973E5,5.656649E5,6.4125206E5,5.491277E5,6.22715E5,5.0843244E5,5.894127E5,5.03861E5,6.561085E5,4.3368903E5,4.0492734E5,5.563318E5,4.7901922E5,4.2436428E5,4.103776E5,5.355516E5,4.4784203E5,5.8189344E5,7.01935E5,6.7937406E5,7.699719E5,5.4225606E5,6.3650006E5,5.830671E5,7.1095006E5,6.0270906E5,5.9329675E5,6.537867E5,6.964307E5,5.446916E5,5.140159E5,5.2764475E5,6.718338E5,5.1279456E5,6.2502156E5,4.9982388E5,6.117556E5,5.666088E5,6.6488756E5,5.580914E5,5.3827225E5,5.491405E5,5.0822038E5,4.914198E5,5.147975E5,5.522057E5,5.7982206E5,5.0794975E5,6.221388E5,5.878141E5,6.920336E5,5.438459E5,5.934211E5,5.3190144E5,6.6739306E5,6.1209506E5,5.821505E5,4.798632E5,5.55868E5,5.9299694E5,5.7068825E5,4.7910488E5,5.7457806E5,5.5238206E5,6.5148956E5,4.5114522E5,5.5963275E5,4.9019416E5,6.345832E5,5.0002756E5,5.2138144E5,6.053595E5,5.7655356E5,4.9572012E5,5.1754666E5,3.374305E5,5.796035E5,3.27194E5,6.295697E5,4.5803153E5,7.159817E5,3.8606944E5,6.4537325E5,3.645746E5,5.969593E5,3.393707E5,5.812634E5,4.666296E5,7.06008E5,3.6541784E5,5.8582875E5,4.493717E5,7.3223225E5,5.765145E5,8.496806E5,4.9888138E5,8.656767E5,6.143635E5,9.1702594E5,4.6191066E5,8.657318E5,5.585113E5,8.2678325E5,4.2040325E5,6.9210706E5,5.586435E5,8.247632E5,5.0008034E5,7.968034E5,4.71985E5,7.597912E5,5.4466856E5,8.575211E5,5.7862456E5,8.72408E5,4.4239878E5,7.3645844E5,4.4783028E5,7.326219E5,5.295449E5,8.095098E5,4.1267662E5,6.9808644E5,5.1663684E5,8.1029575E5,4.4942588E5,8.1148856E5,5.2245106E5,7.8744744E5,4.20956E5,7.5947556E5,5.621447E5,8.010439E5,4.433586E5,7.314345E5,4.3607762E5,7.131912E5,4.0405034E5,6.8084775E5,3.8746253E5,6.461582E5,4.008913E5,6.4512725E5,4.4088412E5,7.066046E5,4.5582653E5,7.245965E5,4.279189E5,7.01861E5,4.4841E5,8.4187956E5,5.1757166E5,7.661354E5,4.6972144E5,7.8519744E5,5.59238E5,8.42253E5,3.6838172E5,7.1276406E5,5.0860306E5,7.7789106E5,4.1390372E5,6.3732575E5,5.393994E5,8.10882E5,5.0280856E5,8.073795E5,4.3924672E5,7.320865E5,3.5697672E5,6.032713E5,4.1201222E5,7.740379E5,5.1749588E5,8.2678144E5,4.3377453E5,7.5364856E5,3.6237253E5,6.4956294E5,4.731203E5,7.2335456E5,3.8968438E5,6.997612E5,5.3040356E5,8.131668E5,3.364707E5,5.7447694E5,4.488379E5,6.6115694E5,3.7710738E5,6.8505894E5,5.5220044E5,7.99705E5,4.4934194E5,7.4060456E5,4.199946E5,7.434906E5,4.2935575E5,7.639876E5,4.5611844E5,7.645534E5,3.796356E5,6.1904275E5,4.573612E5,8.5491475E5,3.3074338E5,3.521186E5,5.7406894E5,7.121537E5,7.049909E5,7.259951E5,3.8196938E5,3.9911944E5,6.0974706E5,6.903145E5,3.5539997E5,3.8682366E5,6.1786506E5,5.724131E5,4.5739484E5,4.813073E5,6.848546E5,7.228828E5,3.611436E5,3.7774694E5,5.995745E5,5.611358E5,4.477907E5,4.5636953E5,7.134257E5,7.664887E5,5.689789E5,5.9429625E5,8.268101E5,8.737512E5,8.488602E5,9.183483E5,6.17825E5,6.068567E5,8.884045E5,9.5272206E5,4.5255106E5,4.8222056E5,5.48959E5,5.705447E5,8.0656344E5,8.425683E5,6.733795E5,7.2823E5,5.412722E5,5.91589E5,8.140502E5,8.355767E5,4.9321053E5,5.2223766E5,7.7594756E5,8.2847125E5,4.6896275E5,4.896043E5,7.374435E5,8.1408625E5,8.104242E5,9.891837E5,4.2007953E5,5.0007266E5,7.1757156E5,7.594522E5,5.193689E5,5.5783475E5,7.898702E5,8.3625425E5,4.0801453E5,4.6832297E5,6.808791E5,7.9210956E5,5.0409738E5,5.6467006E5,7.905156E5,8.578415E5,4.586115E5,4.2729628E5,5.046109E5,5.485455E5,7.679134E5,8.035113E5,7.243615E5,8.1749206E5,5.550752E5,5.748531E5,7.8949775E5,8.109457E5,4.371899E5,4.65075E5,7.08951E5,7.723057E5,6.980503E5,7.4985406E5,4.012753E5,4.2205144E5,6.727939E5,7.067334E5,6.3223056E5,7.5728925E5,6.1194656E5,6.906349E5,4.4647047E5,4.897504E5,6.9977006E5,7.6868806E5,6.7607806E5,7.620374E5,4.1183256E5,5.7329575E5,5.092806E5,5.324071E5,7.546104E5,7.7419244E5,4.6547328E5,4.8614888E5,7.1961994E5,8.7444294E5,5.490984E5,5.768745E5,8.3023306E5,8.513027E5,6.6928375E5,5.845711E5,5.260955E5,5.560838E5,7.9480125E5,8.2052594E5,4.8288306E5,5.51439E5,7.688913E5,8.469941E5,4.355817E5,4.5497812E5,4.6819684E5,4.816276E5,5.1883356E5,5.5158194E5,7.89003E5,8.326125E5,4.3909678E5,4.644973E5,6.3666E5,6.792766E5,7.830892E5,8.091779E5,4.360333E5,4.8784503E5,6.793013E5,8.171921E5,4.092714E5,4.4986306E5,7.2523344E5,7.712295E5,7.336897E5,8.004645E5,3.742362E5,3.9688847E5,5.9139144E5,6.560684E5,4.262827E5,5.1331175E5,3.8588094E5,3.719626E5,4.0784503E5,3.7615684E5,5.995777E5,6.3611894E5,3.658964E5,3.4425594E5,6.107332E5,5.6002494E5,4.8016528E5,4.6309378E5,5.3765075E5,4.686109E5,6.886229E5,7.568832E5,6.808457E5,7.051835E5,7.3540794E5,7.9384275E5,4.5763266E5,4.27296E5,4.3830903E5,4.1475556E5],"categories":[],"categories_nodes":[],"categories_segments":[],"categories_sizes":[],"default_left":[true,true,true,true,true,false,false,false,true,false,false,true,true,true,true,true,true,true,true,true,false,true,true,false,false,true,true,true,true,true,true,true,true,true,true,true,true,true,true,true,true,true,true,true,false,true,true,true,true,true,true,true,true,true,true,true,true,true,true,true,true,false,false,false,false,false,false,false,false,true,true,true,true,false,false,false,false,false,false,true,true,true,true,true,true,true,false,true,true,true,true,true,true,true,true,true,true,true,true,false,true,true,true,true,true,true,true,true,true,true,false,true,true,true,true,true,true,true,true,true,true,true,true,true,true,true,true,true,true,true,true,true,false,true,true,true,true,true,true,true,true,true,true,true,true,true,true,true,true,true,true,true,true,true,true,true,true,true,true,true,true,true,true,true,true,true,true,true,true,true,true,true,true,true,true,true,true,true,false,false,true,false,true,true,true,true,true,false,false,true,true,true,true,true,true,true,true,false,true,true,true,true,false,true,true,false,true,true,true,true,true,true,true,false,true,false,false,true,false,false,true,true,true,true,true,true,true,true,false,true,true,false,true,true,true,true,true,false,true,true,true,false,true,false,true,false,false,true,true,false,true,true,false,true,true,true,true,true,true,false,false,false,false,false,true,true,true,true,true,true,false,false,false,false,false,false,false,false,false,false,false,true,false,false,false,true,true,false,false,true,true,false,false,false,true,true,true,true,true,false,true,false,false,true,true,true,false,false,false,false,false,false,false,true,true,true,false,false,false,false,false,false,false,false,false,true,false,true,false,false,false,false,false,false,false,false,false,false,false,false,false,false,false,false,false,false,false,false,false,false,false,false,false,false,false,false,false,false,false,true,true,true,false,false,false,false,false,false,false,false,false,false,false,false,false,false,false,false,false,false,false,false,false,false,false,false,false,false,false,false,false,false,false,false,false,false,false,true,false,false,false,false,false,false,true,false,false,true,false,false,false,false,false,false,false,false,false,false,false,false,false,false,false,false,false,false,false,false,false,false,false,false,false,false,false,false,false,false,false,false,false,false,false,false,false,false,false,false,false,false,false,true,false,false,false,false,false,false,false,false,false,false,false,false,false,false,false,false,false,false,false,false,false,false,false,false,false,false,false,false,false,false,false,false,false,false,false,false,false,false,false],"id":0,"left_children":[1,3,5,7,9,-1,-1,11,13,15,17,19,21,23,25,27,29,31,33,35,-1,37,39,-1,-1,41,43,45,47,49,51,53,55,57,59,61,63,65,67,69,71,73,75,77,-1,79,81,83,85,87,89,91,93,95,97,99,101,103,105,107,109,-1,-1,-1,-1,-1,-1,-1,-1,111,113,115,117,-1,-1,-1,-1,-1,-1,119,121,123,125,127,129,131,-1,133,135,137,139,141,143,145,147,149,151,153,155,-1,157,159,161,163,165,167,169,171,173,175,-1,177,179,181,183,185,187,189,191,193,195,197,199,201,203,205,207,209,211,213,215,217,-1,219,221,223,225,227,229,231,233,235,237,239,241,243,245,247,249,251,253,255,257,259,261,263,265,267,269,271,273,275,277,279,281,283,285,287,289,291,293,295,297,299,301,303,305,307,-1,-1,309,-1,311,313,315,317,319,-1,-1,321,323,325,327,329,331,333,335,-1,337,339,341,343,-1,345,347,-1,349,351,353,355,357,359,361,-1,363,-1,-1,365,-1,-1,367,369,371,373,375,377,379,381,-1,383,385,-1,387,389,391,393,395,-1,397,399,401,-1,403,-1,405,-1,-1,407,409,-1,411,413,-1,415,417,419,421,423,425,-1,-1,-1,-1,-1,427,429,431,433,435,437,-1,-1,-1,-1,-1,-1,-1,-1,-1,-1,-1,439,-1,-1,-1,441,443,-1,-1,445,447,-1,-1,-1,449,451,453,455,457,-1,459,-1,-1,461,463,465,-1,-1,-1,-1,-1,-1,-1,467,469,471,-1,-1,-1,-1,-1,-1,-1,-1,-1,473,-1,475,-1,-1,-1,-1,-1,-1,-1,-1,-1,-1,-1,-1,-1,-1,-1,-1,-1,-1,-1,-1,-1,-1,-1,-1,-1,-1,-1,-1,-1,-1,-1,477,479,481,-1,-1,-1,-1,-1,-1,-1,-1,-1,-1,-1,-1,-1,-1,-1,-1,-1,-1,-1,-1,-1,-1,-1,-1,-1,-1,-1,-1,-1,-1,-1,-1,-1,-1,-1,483,-1,-1,-1,-1,-1,-1,485,-1,-1,487,-1,-1,-1,-1,-1,-1,-1,-1,-1,-1,-1,-1,-1,-1,-1,-1,-1,-1,-1,-1,-1,-1,-1,-1,-1,-1,-1,-1,-1,-1,-1,-1,-1,-1,-1,-1,-1,-1,-1,-1,-1,-1,-1,489,-1,-1,-1,-1,-1,-1,-1,-1,-1,-1,-1,-1,-1,-1,-1,-1,-1,-1,-1,-1,-1,-1,-1,-1,-1,-1,-1,-1,-1,-1,-1,-1,-1,-1,-1,-1,-1,-1,-1],"loss_changes":[6.477498E14,6.0092605E14,4.167427E12,1.6106127E12,3.0837865E12,0E0,0E0,2.2049825E13,3.0295626E12,1.540347E14,2.3478439E13,1.2524393E13,3.1211527E13,9.432151E10,1.2066174E12,6.591057E13,1.1415379E14,2.7196807E13,2.4647207E13,1.3186892E11,0E0,8.08796E11,1.4798847E12,0E0,0E0,7.187359E10,9.990832E9,1.7845589E12,5.3499186E11,1.8253611E11,3.1138513E11,2.7552215E12,3.890972E11,3.239479E12,3.203106E11,7.0111986E11,4.312919E11,1.0553674E13,5.621441E12,2.4596204E13,1.0568841E13,3.7397757E12,9.0125527E11,2.2667697E11,0E0,2.6613765E13,1.1354283E13,6.927514E12,1.5896077E12,1.1817603E13,8.7040197E12,3.2013612E12,1.8305285E12,1.9234474E13,6.0204704E12,4.606621E12,1.368786E12,1.0695811E13,6.0988536E12,4.0835744E12,1.614438E12,0E0,0E0,0E0,0E0,0E0,0E0,0E0,0E0,4.3315416E11,7.465324E12,4.9090134E10,6.0661044E12,0E0,0E0,0E0,0E0,0E0,0E0,6.0064044E13,5.8787365E12,3.502009E12,1.4632685E13,1.2723841E11,6.2793764E11,3.9376126E10,0E0,7.335375E13,2.8671591E13,7.7997277E12,5.2279147E12,4.9486076E11,2.5608743E12,4.7412412E10,2.1780182E11,5.001892E12,1.0863583E13,2.4481314E11,4.702989E12,0E0,6.1579094E11,4.8674898E11,4.9559896E10,1.7945581E12,8.2275467E12,1.8651902E12,4.6021917E12,1.771674E11,1.4673353E11,8.730863E10,0E0,2.419147E13,1.4120519E13,8.814306E13,2.4957954E13,1.0654321E13,6.808043E12,3.902253E13,1.1814079E13,1.0037365E14,4.4894864E14,2.8666424E13,1.09746615E14,1.3831221E13,2.349441E13,1.8163417E13,1.25133335E14,7.190178E13,8.5312814E13,2.9155379E13,1.0864069E13,6.1796275E12,0E0,7.23051E13,3.4308252E14,4.9849605E13,3.0100205E14,1.3526899E13,3.5582126E13,1.7997893E13,5.1480686E13,5.2108087E13,5.0193806E13,3.770874E13,1.19734696E14,6.66209E12,2.8828416E12,1.7256373E13,9.233374E12,8.2654465E12,7.895747E13,2.5503482E13,2.4275585E14,3.7050426E12,2.6941927E13,3.4140125E12,7.342797E13,3.4525229E13,2.8951972E13,3.5991365E12,4.483044E12,7.273225E12,8.4035565E12,4.3900731E12,3.2396737E13,2.2508045E13,1.5955777E14,2.5089194E12,1.8681128E13,5.324992E12,3.678324E13,1.4274928E13,1.7010168E13,1.1492628E13,1.1687176E13,9.663895E12,8.034332E12,8.732541E10,0E0,0E0,9.021948E11,0E0,1.7085917E11,3.6188455E10,8.7394196E11,1.3959483E11,9.180493E10,0E0,0E0,2.9313152E11,2.7897155E11,1.7095983E10,8.949806E10,3.7580964E9,1.4519674E12,1.7134235E12,6.0328184E12,0E0,2.7346862E11,1.3153337E10,2.4135032E12,5.376259E10,0E0,8.979166E10,6.116973E10,0E0,3.5339528E11,1.7273822E12,3.9272107E11,3.271557E11,7.436333E11,1.0113306E11,2.0852066E12,0E0,2.7393167E12,0E0,0E0,2.4003163E11,0E0,0E0,4.3137578E11,2.4432995E12,4.592394E12,4.2882564E11,1.457571E12,5.661304E12,5.117722E12,1.2644988E11,0E0,6.661226E11,1.6196724E11,0E0,4.8756267E11,1.4831059E11,1.0005932E11,1.8569023E11,8.901655E11,0E0,5.0892007E11,2.5518146E10,1.5562546E11,0E0,5.1339623E12,0E0,2.1546979E11,0E0,0E0,1.843816E11,3.4035938E11,0E0,3.6475345E11,1.592334E12,0E0,3.3963796E11,1.309965E11,1.9243467E10,2.3206077E12,1.1153493E12,5.3177064E11,0E0,0E0,0E0,0E0,0E0,1.9683869E11,4.3244952E11,2.0991653E11,9.73196E11,8.035951E11,1.4881391E10,0E0,0E0,0E0,0E0,0E0,0E0,0E0,0E0,0E0,0E0,0E0,2.4964497E10,0E0,0E0,0E0,1.1060883E12,1.5574625E12,0E0,0E0,9.563013E10,3.3057826E11,0E0,0E0,0E0,6.1605937E10,4.7019826E11,8.881187E11,1.4327742E11,4.9274683E10,0E0,1.6561629E11,0E0,0E0,1.3719568E10,2.868233E11,5.6025835E11,0E0,0E0,0E0,0E0,0E0,0E0,0E0,1.2842959E10,2.9695672E10,3.8646317E10,0E0,0E0,0E0,0E0,0E0,0E0,0E0,0E0,0E0,2.3152558E10,0E0,6.6202894E10,0E0,0E0,0E0,0E0,0E0,0E0,0E0,0E0,0E0,0E0,0E0,0E0,0E0,0E0,0E0,0E0,0E0,0E0,0E0,0E0,0E0,0E0,0E0,0E0,0E0,0E0,0E0,0E0,0E0,0E0,0E0,1.0921968E11,3.2630846E11,1.1327976E12,0E0,0E0,0E0,0E0,0E0,0E0,0E0,0E0,0E0,0E0,0E0,0E0,0E0,0E0,0E0,0E0,0E0,0E0,0E0,0E0,0E0,0E0,0E0,0E0,0E0,0E0,0E0,0E0,0E0,0E0,0E0,0E0,0E0,0E0,0E0,2.9427237E10,0E0,0E0,0E0,0E0,0E0,0E0,2.2452948E11,0E0,0E0,8.763579E10,0E0,0E0,0E0,0E0,0E0,0E0,0E0,0E0,0E0,0E0,0E0,0E0,0E0,0E0,0E0,0E0,0E0,0E0,0E0,0E0,0E0,0E0,0E0,0E0,0E0,0E0,0E0,0E0,0E0,0E0,0E0,0E0,0E0,0E0,0E0,0E0,0E0,0E0,0E0,0E0,0E0,0E0,0E0,1.1953766E10,0E0,0E0,0E0,0E0,0E0,0E0,0E0,0E0,0E0,0E0,0E0,0E0,0E0,0E0,0E0,0E0,0E0,0E0,0E0,0E0,0E0,0E0,0E0,0E0,0E0,0E0,0E0,0E0,0E0,0E0,0E0,0E0,0E0,0E0,0E0,0E0,0E0,0E0,0E0],"parents":[2147483647,0,0,1,1,2,2,3,3,4,4,7,7,8,8,9,9,10,10,11,11,12,12,13,13,14,14,15,15,16,16,17,17,18,18,19,19,21,21,22,22,25,25,26,26,27,27,28,28,29,29,30,30,31,31,32,32,33,33,34,34,35,35,36,36,37,37,38,38,39,39,40,40,41,41,42,42,43,43,45,45,46,46,47,47,48,48,49,49,50,50,51,51,52,52,53,53,54,54,55,55,56,56,57,57,58,58,59,59,60,60,69,69,70,70,71,71,72,72,79,79,80,80,81,81,82,82,83,83,84,84,85,85,87,87,88,88,89,89,90,90,91,91,92,92,93,93,94,94,95,95,96,96,97,97,98,98,100,100,101,101,102,102,103,103,104,104,105,105,106,106,107,107,108,108,109,109,111,111,112,112,113,113,114,114,115,115,116,116,117,117,118,118,119,119,120,120,121,121,122,122,123,123,124,124,125,125,126,126,127,127,128,128,129,129,130,130,131,131,133,133,134,134,135,135,136,136,137,137,138,138,139,139,140,140,141,141,142,142,143,143,144,144,145,145,146,146,147,147,148,148,149,149,150,150,151,151,152,152,153,153,154,154,155,155,156,156,157,157,158,158,159,159,160,160,161,161,162,162,163,163,164,164,165,165,166,166,167,167,168,168,169,169,170,170,171,171,172,172,173,173,174,174,175,175,176,176,177,177,180,180,182,182,183,183,184,184,185,185,186,186,189,189,190,190,191,191,192,192,193,193,194,194,195,195,196,196,198,198,199,199,200,200,201,201,203,203,204,204,206,206,207,207,208,208,209,209,210,210,211,211,212,212,214,214,217,217,220,220,221,221,222,222,223,223,224,224,225,225,226,226,227,227,229,229,230,230,232,232,233,233,234,234,235,235,236,236,238,238,239,239,240,240,242,242,244,244,247,247,248,248,250,250,251,251,253,253,254,254,255,255,256,256,257,257,258,258,264,264,265,265,266,266,267,267,268,268,269,269,281,281,285,285,286,286,289,289,290,290,294,294,295,295,296,296,297,297,298,298,300,300,303,303,304,304,305,305,313,313,314,314,315,315,325,325,327,327,359,359,360,360,361,361,397,397,404,404,407,407,451,451],"right_children":[2,4,6,8,10,-1,-1,12,14,16,18,20,22,24,26,28,30,32,34,36,-1,38,40,-1,-1,42,44,46,48,50,52,54,56,58,60,62,64,66,68,70,72,74,76,78,-1,80,82,84,86,88,90,92,94,96,98,100,102,104,106,108,110,-1,-1,-1,-1,-1,-1,-1,-1,112,114,116,118,-1,-1,-1,-1,-1,-1,120,122,124,126,128,130,132,-1,134,136,138,140,142,144,146,148,150,152,154,156,-1,158,160,162,164,166,168,170,172,174,176,-1,178,180,182,184,186,188,190,192,194,196,198,200,202,204,206,208,210,212,214,216,218,-1,220,222,224,226,228,230,232,234,236,238,240,242,244,246,248,250,252,254,256,258,260,262,264,266,268,270,272,274,276,278,280,282,284,286,288,290,292,294,296,298,300,302,304,306,308,-1,-1,310,-1,312,314,316,318,320,-1,-1,322,324,326,328,330,332,334,336,-1,338,340,342,344,-1,346,348,-1,350,352,354,356,358,360,362,-1,364,-1,-1,366,-1,-1,368,370,372,374,376,378,380,382,-1,384,386,-1,388,390,392,394,396,-1,398,400,402,-1,404,-1,406,-1,-1,408,410,-1,412,414,-1,416,418,420,422,424,426,-1,-1,-1,-1,-1,428,430,432,434,436,438,-1,-1,-1,-1,-1,-1,-1,-1,-1,-1,-1,440,-1,-1,-1,442,444,-1,-1,446,448,-1,-1,-1,450,452,454,456,458,-1,460,-1,-1,462,464,466,-1,-1,-1,-1,-1,-1,-1,468,470,472,-1,-1,-1,-1,-1,-1,-1,-1,-1,474,-1,476,-1,-1,-1,-1,-1,-1,-1,-1,-1,-1,-1,-1,-1,-1,-1,-1,-1,-1,-1,-1,-1,-1,-1,-1,-1,-1,-1,-1,-1,-1,-1,478,480,482,-1,-1,-1,-1,-1,-1,-1,-1,-1,-1,-1,-1,-1,-1,-1,-1,-1,-1,-1,-1,-1,-1,-1,-1,-1,-1,-1,-1,-1,-1,-1,-1,-1,-1,-1,484,-1,-1,-1,-1,-1,-1,486,-1,-1,488,-1,-1,-1,-1,-1,-1,-1,-1,-1,-1,-1,-1,-1,-1,-1,-1,-1,-1,-1,-1,-1,-1,-1,-1,-1,-1,-1,-1,-1,-1,-1,-1,-1,-1,-1,-1,-1,-1,-1,-1,-1,-1,-1,490,-1,-1,-1,-1,-1,-1,-1,-1,-1,-1,-1,-1,-1,-1,-1,-1,-1,-1,-1,-1,-1,-1,-1,-1,-1,-1,-1,-1,-1,-1,-1,-1,-1,-1,-1,-1,-1,-1,-1],"split_conditions":[6.516028E1,3.110822E1,6.529178E1,1.5E0,5E-1,1.10894984E5,7.278586E4,-1.6485E3,-2.3725E3,-1.3165E3,-1.3245E3,5E-1,5E-1,1.5E0,1.5E0,1.5E0,1.5E0,1.5E0,1.5E0,5E-1,1.6656783E5,5E-1,5E-1,1.720415E5,1.568356E5,5E-1,5E-1,5E-1,5E-1,5E-1,5E-1,5E-1,5E-1,5E-1,5E-1,2.8530136E1,2.7831507E1,2.2091782E1,2.2027397E1,2.551096E1,2.5131508E1,2.8941095E1,2.8245205E1,2.8175343E1,1.3549172E5,5.503425E1,3.7790413E1,5.5221916E1,3.788356E1,5.7236984E1,4.190685E1,5.5271233E1,3.979863E1,3.6234245E1,3.5719177E1,3.5697258E1,3.6760273E1,3.4143837E1,3.630822E1,4.229863E1,4.84274E1,1.3595558E5,1.4924752E5,1.28099945E5,1.4387897E5,7.895481E4,1.3408384E5,7.5724375E4,1.2780368E5,1.5E0,1.5E0,1.5E0,1.5E0,1.3888506E5,1.6692144E5,1.371882E5,1.5665088E5,1.1540921E5,1.3705312E5,5E-1,5E-1,5E-1,5E-1,2.5E0,3.5E0,2.5E0,1.81503E5,5E-1,5E-1,5E-1,5E-1,2.5E0,2.5E0,3.5E0,3.5E0,5E-1,5E-1,5E-1,5E-1,1.5387377E5,2.5E0,3.5E0,2.5E0,5E-1,5E-1,5E-1,5E-1,3.5E0,2.5E0,3.5E0,1.9683256E5,1.3725E5,1.6875E5,1.680435E5,1.7775E5,1.6875E5,1.577025E5,1.8054225E5,1.5795E5,1.65375E5,1.5885E5,1.6875E5,1.58679E5,2.3625E5,2.0475E5,1.3725E5,1.3866075E5,1.87875E5,1.6737075E5,1.99125E5,1.83375E5,1.8682425E5,1.5420478E5,1.926E5,1.365885E5,1.47825E5,1.413E5,2.295E5,1.8675E5,1.5975E5,1.65375E5,1.640025E5,1.67625E5,1.31625E5,1.26675E5,1.7775E5,2.2275E5,1.6515E5,1.3725E5,2.3175E5,1.72125E5,1.9125E5,1.62675E5,1.6425E5,1.9485E5,1.5525E5,1.6875E5,1.8225E5,1.6425E5,1.5075E5,1.98E5,2.1375E5,1.6425E5,1.7325E5,1.58625E5,1.382625E5,1.65465E5,1.4625E5,1.388565E5,1.6875E5,1.8225E5,2.165625E5,1.9125E5,1.5075E5,1.755E5,1.382625E5,2.2725E5,5E-1,1.7388106E5,9.81582E4,5E-1,1.3740947E5,5E-1,5E-1,5E-1,5E-1,5E-1,1.0181121E5,1.7437902E5,5E-1,5E-1,5E-1,5E-1,5E-1,5E-1,5E-1,5E-1,1.4966442E5,5E-1,5E-1,5E-1,5E-1,2.5971955E5,5E-1,5E-1,1.2612098E5,5E-1,5E-1,5E-1,5E-1,5E-1,5E-1,5E-1,1.6340058E5,5E-1,1.7358738E5,2.617224E5,5E-1,2.2093755E5,1.343491E5,5E-1,5E-1,5E-1,5E-1,5E-1,5E-1,5E-1,5E-1,2.4344658E5,5E-1,5E-1,1.26286805E5,5E-1,5E-1,5E-1,5E-1,5E-1,1.3082329E5,5E-1,5E-1,5E-1,1.16238766E5,5E-1,1.202674E5,5E-1,1.3226525E5,2.1198139E5,5E-1,5E-1,1.2837568E5,5E-1,5E-1,2.5256388E5,5E-1,5E-1,5E-1,5E-1,5E-1,5E-1,1.1051452E5,2.1382923E5,1.5258092E5,2.3336733E5,1.2417112E5,5E-1,5E-1,5E-1,5E-1,5E-1,5E-1,2.1962595E5,1.0709302E5,1.809814E5,1.2360367E5,2.3221138E5,1.5524877E5,2.4803444E5,1.3013237E5,2.2609458E5,1.08711766E5,1.9486889E5,5E-1,2.1700638E5,1.1690532E5,2.0992836E5,5E-1,5E-1,1.0094121E5,1.723431E5,5E-1,5E-1,1.1313222E5,2.0551769E5,1.6566014E5,5E-1,5E-1,5E-1,5E-1,5E-1,1.2880673E5,5E-1,1.3683553E5,2.2936602E5,5E-1,5E-1,5E-1,2.5647444E5,9.9223016E4,1.05635586E5,1.7222069E5,2.1364611E5,2.1149727E5,2.1779855E5,2.5E0,2.5E0,3.5E0,2.0709436E5,1.0661999E5,1.160471E5,1.8535953E5,1.7172394E5,1.3721845E5,1.443922E5,2.0545639E5,2.1686486E5,2.5E0,1.13324086E5,2.5E0,1.6834075E5,1.3433722E5,1.3691086E5,2.1402772E5,2.2994661E5,1.7069367E5,1.7828888E5,2.4804305E5,2.6212536E5,2.5465806E5,2.755045E5,1.853475E5,1.8205702E5,2.6652138E5,2.8581662E5,1.3576533E5,1.4466617E5,1.646877E5,1.711634E5,2.4196905E5,2.527705E5,2.0201386E5,2.1846902E5,1.6238166E5,1.774767E5,2.4421506E5,2.5067302E5,1.4796317E5,1.566713E5,2.3278428E5,2.4854139E5,3.5E0,3.5E0,3.5E0,2.4422589E5,2.4312727E5,2.9675512E5,1.2602387E5,1.500218E5,2.1527148E5,2.2783567E5,1.5581067E5,1.6735044E5,2.3696106E5,2.5087628E5,1.2240437E5,1.4049689E5,2.0426375E5,2.3763288E5,1.5122922E5,1.6940103E5,2.371547E5,2.5735245E5,1.3758345E5,1.2818889E5,1.5138328E5,1.6456366E5,2.3037402E5,2.410534E5,2.1730845E5,2.4524762E5,1.6652256E5,1.7245594E5,2.3684933E5,2.4328372E5,1.3115698E5,1.395225E5,2.1268531E5,2.3169172E5,3.5E0,2.2495623E5,1.203826E5,1.2661544E5,2.0183817E5,2.1202002E5,1.8966917E5,3.5E0,1.8358397E5,2.0719047E5,2.5E0,1.4692512E5,2.0993103E5,2.3060642E5,2.0282342E5,2.2861122E5,1.2354977E5,1.7198873E5,1.5278419E5,1.5972214E5,2.2638312E5,2.3225773E5,1.3964198E5,1.4584467E5,2.1588598E5,2.623329E5,1.6472952E5,1.7306236E5,2.4906992E5,2.5539081E5,2.0078514E5,1.7537134E5,1.5782866E5,1.6682516E5,2.3844039E5,2.461578E5,1.4486492E5,1.654317E5,2.306674E5,2.5409825E5,1.3067451E5,1.3649344E5,1.4045906E5,1.4448828E5,1.5565008E5,1.654746E5,2.367009E5,2.4978377E5,1.3172905E5,1.393492E5,1.90998E5,2.03783E5,2.3492677E5,2.4275338E5,2.5E0,1.4635352E5,2.037904E5,2.4515764E5,1.2278143E5,1.3495892E5,2.1757005E5,2.3136886E5,2.2010692E5,2.4013936E5,1.1227086E5,1.1906655E5,1.7741744E5,1.9682052E5,1.2788481E5,1.5399353E5,1.1576429E5,1.1158878E5,1.22353516E5,1.12847055E5,1.7987331E5,1.9083569E5,1.0976893E5,1.0327679E5,1.8321997E5,1.6800748E5,1.440496E5,1.3892814E5,1.6129523E5,1.4058328E5,2.0658688E5,2.2706497E5,2.0425372E5,2.1155506E5,2.2062239E5,2.3815283E5,1.372898E5,1.28188805E5,1.3149272E5,1.2442667E5],"split_indices":[6,6,6,13,13,0,0,2,2,2,2,8,8,8,8,8,8,8,8,5,0,5,5,0,0,5,5,5,5,5,5,5,5,5,5,6,6,6,6,6,6,6,6,6,0,6,6,6,6,6,6,6,6,6,6,6,6,6,6,6,6,0,0,0,0,0,0,0,0,8,8,8,8,0,0,0,0,0,0,8,8,8,8,8,8,8,0,8,8,8,8,8,8,8,8,8,8,8,8,0,8,8,8,8,8,8,8,8,8,8,0,10,10,10,10,10,10,10,10,10,10,10,10,10,10,10,10,10,10,10,10,10,0,10,10,10,10,10,10,10,10,10,10,10,10,10,10,10,10,10,10,10,10,10,10,10,10,10,10,10,10,10,10,10,10,10,10,10,10,10,10,10,10,10,10,10,10,0,0,0,0,0,0,0,0,0,0,0,0,0,0,0,0,0,0,0,0,0,0,0,0,0,0,0,0,0,0,0,0,0,0,0,0,0,0,0,0,0,0,0,0,0,0,0,0,0,0,0,0,0,0,0,0,0,0,0,0,0,0,0,0,0,0,0,0,0,0,0,0,0,0,0,0,0,0,0,0,0,0,0,0,0,0,0,0,0,0,0,0,0,0,0,0,0,0,0,0,0,0,0,0,0,0,0,0,0,0,0,0,0,0,0,0,0,0,0,0,0,0,0,0,0,0,0,0,0,0,0,0,0,0,0,0,8,8,8,0,0,0,0,0,0,0,0,0,8,0,8,0,0,0,0,0,0,0,0,0,0,0,0,0,0,0,0,0,0,0,0,0,0,0,0,0,0,0,0,0,0,0,8,8,8,0,0,0,0,0,0,0,0,0,0,0,0,0,0,0,0,0,0,0,0,0,0,0,0,0,0,0,0,0,0,0,0,0,0,0,8,0,0,0,0,0,0,8,0,0,8,0,0,0,0,0,0,0,0,0,0,0,0,0,0,0,0,0,0,0,0,0,0,0,0,0,0,0,0,0,0,0,0,0,0,0,0,0,0,0,0,0,0,0,8,0,0,0,0,0,0,0,0,0,0,0,0,0,0,0,0,0,0,0,0,0,0,0,0,0,0,0,0,0,0,0,0,0,0,0,0,0,0,0],"split_type":[0,0,0,0,0,0,0,0,0,0,0,0,0,0,0,0,0,0,0,0,0,0,0,0,0,0,0,0,0,0,0,0,0,0,0,0,0,0,0,0,0,0,0,0,0,0,0,0,0,0,0,0,0,0,0,0,0,0,0,0,0,0,0,0,0,0,0,0,0,0,0,0,0,0,0,0,0,0,0,0,0,0,0,0,0,0,0,0,0,0,0,0,0,0,0,0,0,0,0,0,0,0,0,0,0,0,0,0,0,0,0,0,0,0,0,0,0,0,0,0,0,0,0,0,0,0,0,0,0,0,0,0,0,0,0,0,0,0,0,0,0,0,0,0,0,0,0,0,0,0,0,0,0,0,0,0,0,0,0,0,0,0,0,0,0,0,0,0,0,0,0,0,0,0,0,0,0,0,0,0,0,0,0,0,0,0,0,0,0,0,0,0,0,0,0,0,0,0,0,0,0,0,0,0,0,0,0,0,0,0,0,0,0,0,0,0,0,0,0,0,0,0,0,0,0,0,0,0,0,0,0,0,0,0,0,0,0,0,0,0,0,0,0,0,0,0,0,0,0,0,0,0,0,0,0,0,0,0,0,0,0,0,0,0,0,0,0,0,0,0,0,0,0,0,0,0,0,0,0,0,0,0,0,0,0,0,0,0,0,0,0,0,0,0,0,0,0,0,0,0,0,0,0,0,0,0,0,0,0,0,0,0,0,0,0,0,0,0,0,0,0,0,0,0,0,0,0,0,0,0,0,0,0,0,0,0,0,0,0,0,0,0,0,0,0,0,0,0,0,0,0,0,0,0,0,0,0,0,0,0,0,0,0,0,0,0,0,0,0,0,0,0,0,0,0,0,0,0,0,0,0,0,0,0,0,0,0,0,0,0,0,0,0,0,0,0,0,0,0,0,0,0,0,0,0,0,0,0,0,0,0,0,0,0,0,0,0,0,0,0,0,0,0,0,0,0,0,0,0,0,0,0,0,0,0,0,0,0,0,0,0,0,0,0,0,0,0,0,0,0,0,0,0,0,0,0,0,0,0,0,0,0,0,0,0,0,0,0,0,0,0,0,0,0,0,0,0,0,0,0,0,0,0,0,0,0,0,0,0,0,0],"sum_hessian":[2.14118E5,2.08931E5,5.187E3,3.727E4,1.71661E5,2.73E2,4.914E3,3.3591E4,3.679E3,1.21413E5,5.0248E4,8.664E3,2.4927E4,7.37E2,2.942E3,5.7508E4,6.3905E4,2.9977E4,2.0271E4,2.166E3,6.498E3,9.194E3,1.5733E4,6.8E2,5.7E1,2.645E3,2.97E2,4.5293E4,1.2215E4,4.708E4,1.6825E4,2.5062E4,4.915E3,1.6258E4,4.013E3,1.504E3,6.62E2,5.58E3,3.614E3,9.769E3,5.964E3,1.728E3,9.17E2,2.01E2,9.6E1,3.4924E4,1.0369E4,9.679E3,2.536E3,3.9619E4,7.461E3,1.4597E4,2.228E3,1.8933E4,6.129E3,3.78E3,1.135E3,1.1464E4,4.794E3,2.862E3,1.151E3,8.34E2,6.7E2,3.19E2,3.43E2,3.33E2,5.247E3,1.98E2,3.416E3,2.534E3,7.235E3,1.598E3,4.366E3,8.78E2,8.5E2,3.74E2,5.43E2,7.9E1,1.22E2,2.9271E4,5.653E3,2.121E3,8.248E3,7.838E3,1.841E3,4.25E2,2.111E3,2.1938E4,1.7681E4,3.135E3,4.326E3,5.432E3,9.165E3,6.87E2,1.541E3,5.665E3,1.3268E4,1.851E3,4.278E3,8.07E2,2.973E3,3.83E2,7.52E2,2.371E3,9.093E3,1.843E3,2.951E3,1.931E3,9.31E2,1.075E3,7.6E1,1.724E3,8.1E2,5.619E3,1.616E3,1.035E3,5.63E2,3.325E3,1.041E3,5.04E3,2.4231E4,8.54E2,4.799E3,5.34E2,1.587E3,1.026E3,7.222E3,3.612E3,4.226E3,1.314E3,5.27E2,3.17E2,1.08E2,4.422E3,1.7516E4,2.689E3,1.4992E4,8.64E2,2.271E3,6.42E2,3.684E3,2.622E3,2.81E3,1.975E3,7.19E3,4.81E2,2.06E2,1.041E3,5E2,4.18E2,5.247E3,1.096E3,1.2172E4,1.26E2,1.725E3,2.77E2,4.001E3,1.62E3,1.353E3,2.39E2,1.44E2,4.15E2,3.37E2,2.22E2,2.149E3,9.4E2,8.153E3,1.79E2,1.664E3,2.43E2,2.708E3,1.174E3,7.57E2,4.13E2,5.18E2,6.77E2,3.98E2,1.039E3,6.85E2,6.02E2,2.08E2,3.478E3,2.141E3,1.037E3,5.79E2,7.69E2,2.66E2,3.98E2,1.65E2,2.368E3,9.57E2,6.52E2,3.89E2,2.679E3,2.361E3,1.3106E4,1.1125E4,4.34E2,4.2E2,2.332E3,2.467E3,4.28E2,1.06E2,1.126E3,4.61E2,4.12E2,6.14E2,3.089E3,4.133E3,2.363E3,1.249E3,2.445E3,1.781E3,8.56E2,4.58E2,3.16E2,2.11E2,2.07E2,1.1E2,3.183E3,1.239E3,8.614E3,8.902E3,1.746E3,9.43E2,9.459E3,5.533E3,7.44E2,1.2E2,1.506E3,7.65E2,3.66E2,2.76E2,2.1E3,1.584E3,1.578E3,1.044E3,1.774E3,1.036E3,9.4E2,1.035E3,3.834E3,3.356E3,3.03E2,1.78E2,1.49E2,5.7E1,6.68E2,3.73E2,2.23E2,2.77E2,3.55E2,6.3E1,3.04E3,2.207E3,6.86E2,4.1E2,6.461E3,5.711E3,6.2E1,6.4E1,1.182E3,5.43E2,1.31E2,1.46E2,2.115E3,1.886E3,1.039E3,5.81E2,6.93E2,6.6E2,1.2E2,1.19E2,8.7E1,5.7E1,3.14E2,1.01E2,1.93E2,1.44E2,1.32E2,9E1,1.278E3,8.71E2,4.47E2,4.93E2,4.662E3,3.491E3,9.3E1,8.6E1,7.96E2,8.68E2,1.54E2,8.9E1,1.807E3,9.01E2,9.7E2,2.04E2,5.2E2,2.37E2,1.96E2,2.17E2,3.16E2,2.02E2,3.49E2,3.28E2,3.38E2,6E1,7.16E2,3.23E2,1.25E2,8.3E1,1.025E3,1.116E3,7.92E2,2.45E2,3.24E2,2.55E2,5.46E2,2.23E2,1.42E2,1.24E2,1.456E3,9.12E2,4.27E2,5.3E2,4.87E2,1.65E2,2.48E2,1.41E2,2.192E3,4.87E2,1.526E3,8.35E2,9.208E3,3.898E3,5.707E3,5.418E3,3.2E2,1E2,1.589E3,7.43E2,1.371E3,1.096E3,2.95E2,1.33E2,6.31E2,4.95E2,2.05E2,2.56E2,4.06E2,2.08E2,2.024E3,1.065E3,2.081E3,2.052E3,1.806E3,5.57E2,7.55E2,4.94E2,2.09E3,3.55E2,1.263E3,5.18E2,3.38E2,1.2E2,1.5E2,5.7E1,7.96E2,4.43E2,6.337E3,2.277E3,5.135E3,3.767E3,1.612E3,1.34E2,7.98E2,1.45E2,7.502E3,1.957E3,3.909E3,1.624E3,5.24E2,2.2E2,8.96E2,6.1E2,3.48E2,4.17E2,1.73E2,1.03E2,1.353E3,7.47E2,7.36E2,8.48E2,1.231E3,3.47E2,6.75E2,3.69E2,7.35E2,3.01E2,8.17E2,1.23E2,7.92E2,2.43E2,2.983E3,3.73E2,1.04E2,7.4E1,5.25E2,1.43E2,2.4E2,1.33E2,1.95E2,8.2E1,2.75E2,8E1,1.953E3,1.087E3,9.13E2,1.294E3,5.48E2,1.38E2,2.37E2,1.73E2,4.105E3,2.356E3,2.458E3,3.253E3,9E1,5.6E1,1.179E3,9.36E2,7.11E2,1.175E3,7.38E2,3.01E2,2.96E2,2.85E2,5.65E2,1.28E2,8.14E2,4.64E2,3.017E3,1.645E3,1.559E3,1.932E3,4.93E2,3.03E2,3.71E2,4.97E2,3.31E2,5.7E2,7.22E2,2.48E2,1.14E2,9E1,3.84E2,1.36E2,1.45E2,9.2E1,1.2E2,9.7E1,2.68E2,8.1E1,1.89E2,1.39E2,2.18E2,1.2E2,5.66E2,2.26E2,1.76E2,6.9E1,2.36E2,8.8E1,3.78E2,1.09E2,1.92E2,5.6E1,7.15E2,1.375E3,1.07E2,2.48E2,3.61E2,9.02E2,2.19E2,5.16E2,2.35E2,1.38E2,3.3E2,1.95E2,6.5E2,7.2E1],"tree_param":{"num_deleted":"0","num_feature":"14","num_nodes":"491","size_leaf_vector":"0"}},{"base_weights":[4.1947838E5,3.9558862E5,4.6586072E5,3.9750094E5,3.727419E5,4.687595E5,4.3175297E5,4.0527675E5,1.7204006E5,3.2432388E5,4.1428462E5,3.984157E5,4.9550144E5,3.84879E5,4.8631144E5,4.0952122E5,3.9381297E5,3.2230434E5,3.4849184E5,4.1363206E5,4.5176697E5,3.9608962E5,4.104378E5,4.9789306E5,4.782105E5,3.7879975E5,4.2931994E5,4.967001E5,4.695471E5],"categories":[],"categories_nodes":[],"categories_segments":[],"categories_sizes":[],"default_left":[true,true,true,true,true,true,true,true,false,true,true,true,true,true,true,false,false,false,false,false,false,false,false,false,false,false,false,false,false],"id":1,"left_children":[1,3,5,7,9,11,13,15,-1,17,19,21,23,25,27,-1,-1,-1,-1,-1,-1,-1,-1,-1,-1,-1,-1,-1,-1],"loss_changes":[2.3713373E14,6.1525407E12,7.1683004E12,2.2852447E14,2.1933861E13,1.2612494E14,1.4556181E13,6.109591E12,0E0,2.3179402E11,1.2005776E11,4.9606872E11,1.9778324E12,8.080578E11,4.292954E11,0E0,0E0,0E0,0E0,0E0,0E0,0E0,0E0,0E0,0E0,0E0,0E0,0E0,0E0],"parents":[2147483647,0,0,1,1,2,2,3,3,4,4,5,5,6,6,7,7,9,9,10,10,11,11,12,12,13,13,14,14],"right_children":[2,4,6,8,10,12,14,16,-1,18,20,22,24,26,28,-1,-1,-1,-1,-1,-1,-1,-1,-1,-1,-1,-1,-1,-1],"split_conditions":[5E-1,5E-1,5E-1,6.516028E1,3.282192E1,3.4447945E1,3.531781E1,5E-1,5.161202E4,1.5E0,2.5E0,1.5E0,1.5E0,1.5E0,5E-1,1.2285637E5,1.181439E5,9.6691305E4,1.04547555E5,1.24089625E5,1.355301E5,1.1882689E5,1.2313135E5,1.4936792E5,1.4346316E5,1.1363993E5,1.28795984E5,1.4901003E5,1.4086414E5],"split_indices":[0,3,3,6,6,6,6,13,0,13,13,13,13,13,13,0,0,0,0,0,0,0,0,0,0,0,0,0,0],"split_type":[0,0,0,0,0,0,0,0,0,0,0,0,0,0,0,0,0,0,0,0,0,0,0,0,0,0,0,0,0],"sum_hessian":[2.1403E5,1.41269E5,7.2761E4,1.30356E5,1.0913E4,6.706E4,5.701E3,1.2601E5,4.346E3,5.04E3,5.873E3,1.8472E4,4.8588E4,3.067E3,2.634E3,9.1958E4,3.4052E4,4.653E3,3.87E2,5.774E3,9.9E1,1.5481E4,2.991E3,4.2681E4,5.907E3,2.699E3,3.68E2,1.624E3,1.01E3],"tree_param":{"num_deleted":"0","num_feature":"14","num_nodes":"29","size_leaf_vector":"0"}},{"base_weights":[2.934051E5,2.7610128E5,3.2703447E5,2.1831023E5,2.8738862E5,2.643493E5,3.3526203E5],"categories":[],"categories_nodes":[],"categories_segments":[],"categories_sizes":[],"default_left":[true,true,true,false,false,false,false],"id":2,"left_children":[1,3,5,-1,-1,-1,-1],"loss_changes":[1.2452184E14,9.2163556E13,3.7486475E13,0E0,0E0,0E0,0E0],"parents":[2147483647,0,0,1,1,2,2],"right_children":[2,4,6,-1,-1,-1,-1],"split_conditions":[5E-1,5E-1,5E-1,6.5493074E4,8.621659E4,7.93048E4,1.0057862E5],"split_indices":[0,8,8,0,0,0,0],"split_type":[0,0,0,0,0,0,0],"sum_hessian":[2.14007E5,1.41302E5,7.2705E4,2.3089E4,1.18213E5,8.436E3,6.4269E4],"tree_param":{"num_deleted":"0","num_feature":"14","num_nodes":"7","size_leaf_vector":"0"}},{"base_weights":[2.0488211E5,2.1697128E5,1.6038411E5,1.605519E5,2.3002978E5,1.5628672E5,1.6994873E5,1.5309467E5,1.808611E5,2.2151816E5,2.4316648E5,1.4606358E5,1.8997461E5,1.6285902E5,1.9346881E5,1.616611E5,1.1824985E5,1.891788E5,1.4750514E5,2.2383119E5,1.9942267E5,2.45939E5,2.1441134E5,1.4537786E5,1.5753067E5,1.9378381E5,1.5932831E5,1.6600261E5,1.4177962E5,1.9885883E5,1.5714438E5,1.9800642E5,1.4378566E5,1.6593389E5,1.0028547E5,2.496455E5,1.6300202E5,1.6742497E5,1.1331168E5,2.6428103E5,2.0750555E5,2.6201852E5,1.797825E5,2.739388E5,2.2924433E5,3.014955E5,1.9793578E5,1.7728552E5,1.2955547E5,2.251455E5,1.375192E5,2.3981436E5,1.6993522E5,2.2079833E5,1.3637602E5,1.9032183E5,1.4614719E5,1.5336148E5,1.1245614E5,2.2519473E5,1.733297E5,2.2136956E5,1.1174786E5],"categories":[],"categories_nodes":[],"categories_segments":[],"categories_sizes":[],"default_left":[true,true,true,true,true,true,true,true,true,true,true,true,true,true,true,false,false,false,true,false,false,false,false,false,false,false,false,false,false,false,false,false,false,false,false,false,false,false,false,false,false,false,false,false,false,false,false,false,false,false,false,false,false,false,false,false,false,false,false,false,false,false,false],"id":3,"left_children":[1,3,5,7,9,11,13,15,17,19,21,23,25,27,29,31,33,35,37,39,41,43,45,47,49,51,53,55,57,59,61,-1,-1,-1,-1,-1,-1,-1,-1,-1,-1,-1,-1,-1,-1,-1,-1,-1,-1,-1,-1,-1,-1,-1,-1,-1,-1,-1,-1,-1,-1,-1,-1],"loss_changes":[1.1519908E14,1.2406657E14,1.789525E12,4.7902307E12,1.5283641E13,1.1028268E13,2.2838489E12,6.908388E12,2.3547662E12,4.235643E12,4.279935E12,1.903543E11,8.666103E11,6.9566726E11,6.180978E11,1.206963E13,3.9118722E12,1.076302E13,1.1535594E12,4.960016E13,9.663374E12,2.2914187E13,6.777626E12,1.1704725E13,1.8702569E12,7.275339E12,1.1603416E12,4.4263665E12,4.627995E11,1.8548135E12,1.1955497E12,0E0,0E0,0E0,0E0,0E0,0E0,0E0,0E0,0E0,0E0,0E0,0E0,0E0,0E0,0E0,0E0,0E0,0E0,0E0,0E0,0E0,0E0,0E0,0E0,0E0,0E0,0E0,0E0,0E0,0E0,0E0,0E0],"parents":[2147483647,0,0,1,1,2,2,3,3,4,4,5,5,6,6,7,7,8,8,9,9,10,10,11,11,12,12,13,13,14,14,15,15,16,16,17,17,18,18,19,19,20,20,21,21,22,22,23,23,24,24,25,25,26,26,27,27,28,28,29,29,30,30],"right_children":[2,4,6,8,10,12,14,16,18,20,22,24,26,28,30,32,34,36,38,40,42,44,46,48,50,52,54,56,58,60,62,-1,-1,-1,-1,-1,-1,-1,-1,-1,-1,-1,-1,-1,-1,-1,-1,-1,-1,-1,-1,-1,-1,-1,-1,-1,-1,-1,-1,-1,-1,-1,-1],"split_conditions":[1.5E0,5E-1,3.5E0,5E-1,5E-1,5E-1,5E-1,5E-1,5E-1,5E-1,5E-1,2.5E0,5E-1,5E-1,5E-1,-1.6565E3,-1.6525E3,-1.9285E3,-7.35E2,-2.5855E3,-2.7505E3,-2.2495E3,-3.671E3,-1.5765E3,-2.8175E3,-2.0625E3,-2.2055E3,-1.3525E3,-4.82E2,-1.423E3,-1.772E3,5.940193E4,4.31357E4,4.9780168E4,3.0085643E4,7.489366E4,4.8900605E4,5.0227492E4,3.3993504E4,7.928431E4,6.2251668E4,7.8605555E4,5.3934754E4,8.218165E4,6.8773305E4,9.044866E4,5.938074E4,5.3185656E4,3.886664E4,6.754366E4,4.125576E4,7.194431E4,5.0980566E4,6.62395E4,4.0912805E4,5.709655E4,4.3844156E4,4.6008445E4,3.3736844E4,6.755842E4,5.1998914E4,6.6410875E4,3.352436E4],"split_indices":[8,8,8,0,0,0,0,11,11,11,11,11,11,11,11,2,2,2,2,2,2,2,2,2,2,2,2,2,2,2,2,0,0,0,0,0,0,0,0,0,0,0,0,0,0,0,0,0,0,0,0,0,0,0,0,0,0,0,0,0,0,0,0],"split_type":[0,0,0,0,0,0,0,0,0,0,0,0,0,0,0,0,0,0,0,0,0,0,0,0,0,0,0,0,0,0,0,0,0,0,0,0,0,0,0,0,0,0,0,0,0,0,0,0,0,0,0,0,0,0,0,0,0,0,0,0,0,0,0],"sum_hessian":[2.14155E5,1.68403E5,4.5752E4,3.1652E4,1.36751E5,3.2032E4,1.372E4,2.3152E4,8.5E3,8.2985E4,5.3766E4,2.4575E4,7.457E3,1.0543E4,3.177E3,1.8583E4,4.569E3,6.803E3,1.697E3,7.512E4,7.865E3,4.9037E4,4.729E3,2.319E4,1.385E3,6.632E3,8.25E2,9.174E3,1.369E3,2.766E3,4.11E2,6.126E3,1.2457E4,1.25E3,3.319E3,2.055E3,4.748E3,1.072E3,6.25E2,2.16E4,5.352E4,1.878E3,5.987E3,1.8316E4,3.0721E4,7.52E2,3.977E3,7.687E3,1.5503E4,3.16E2,1.069E3,2.263E3,4.369E3,2.24E2,6.01E2,4.123E3,5.051E3,9.81E2,3.88E2,1.361E3,1.405E3,1.7E2,2.41E2],"tree_param":{"num_deleted":"0","num_feature":"14","num_nodes":"63","size_leaf_vector":"0"}},{"base_weights":[1.4293442E5,1.4719631E5,-3.2733275E4,1.3960155E5,1.6162566E5,-1.793795E4,-1.1805528E5,2.3400586E4,2.2398066E5,8.384866E4,3.15219E5,-3.7744734E4,1.4311669E4,-1.8343544E5,-9.583629E4,3.8586672E3,2.7129371E4,1.7348436E5,2.34975E5,6.309448E4,8.998003E4,2.4672489E5,3.295507E5,-3.7833105E4,-3.448289E4,-3.1883518E4,1.6519432E4,3.554651E4,-1.6627246E3,4.0832797E4,1.31981045E4,2.0447894E5,1.6173675E5,2.6977856E5,2.2588273E5,1.07757016E5,5.4837887E4,1.1173473E5,7.94415E4,2.7687244E5,2.2331283E5,3.9779156E5,3.2196397E5,-4.9706723E4,-3.7546277E4,-2.3490506E4,1.9592562E4,-1.9895242E4,8.552339E4,-4.536415E4,4.31068E4,-4.1254863E4,8.775584E4,-6.4557105E4,4.5404023E4,1.6486303E5,3.0297556E5,1.396479E5,2.8867484E5,2.2613292E5,4.0352572E5,1.8508325E5,3.8699116E5,-7.1372984E4,1.4208311E5,-2.1639395E4,9.27041E4,2.220295E4,1.6484012E5,-6.4326025E3,1.2644067E5,2.5823014E5,4.9360847E5,1.8260202E5,3.4614112E5,3.2225522E5,5.535001E5,2.453635E5,4.1641328E5,-5.3871273E4,-2.0972158E4,9.677188E3,7.630451E4,-3.790124E4,-5.9646816E4,9.06426E4,7.6825555E4,-4.8936773E4,-6.812474E4,4.691516E4,1.4058417E4,2.4718989E5,2.1430519E5,4.1873138E5,3.677979E5,1.9370944E5,1.7115848E5,4.0861744E5,3.3897272E5,-1.0260133E4,2.4617924E4,1.7195903E5,1.4673406E5,2.480737E4,-1.4890629E4,1.7051827E5,1.1816546E5,3.1957775E5,3.7536028E5,5.1428372E5,5.580057E5,2.7393778E5,2.3990338E5,4.4334856E5,3.56899E5,-5.03487E4,-5.8754595E3,-7.983557E4,-2.2720217E4,8.3501836E4,1.1067825E5,5.8396613E4,1.1862589E5,-6.7352914E4,-1.916678E4,-8.585521E4,-3.574974E4,3.5993023E4,6.780754E4,-5.572185E2,4.0491473E4,2.3312966E5,2.788675E5,2.0418933E5,2.3732845E5,3.9629162E5,4.778963E5,3.5882884E5,3.91157E5,1.8437862E5,2.164191E5,1.6030561E5,1.9459342E5,3.8787422E5,4.5750503E5,3.316508E5,3.554855E5,-3.368639E4,5.001706E4,1.659659E4,4.6114523E4,1.6506722E5,1.910088E5,1.2438603E5,1.9854411E5,2.0349213E4,3.4745297E4,-2.5383586E4,8.218245E3,1.5557256E5,2.017991E5,1.0334716E5,1.4960733E5,3.1579125E5,3.315812E5,5.642451E5,5.3444706E5,2.4651219E5,3.2975903E5,2.205093E5,2.8058928E5,4.0866794E5,5.1752903E5,3.3775353E5,3.9835656E5,-9.429361E4,-4.807313E4,2.5285955E3,-6.686606E3,-8.8803055E4,-3.4032906E4,-4.7610734E4,5.7053677E3,6.3730117E4,8.54977E4,1.1910734E5,1.0862046E5,1.965204E4,6.0403105E4,1.0153425E5,1.3768933E5,-7.484221E4,-1.5486705E4,-3.493891E4,2.3904633E4,-8.857682E4,-7.659433E4,-3.7305117E4,-2.1843535E4,3.1699215E4,3.9761535E4,9.2920805E4,6.034951E4,-1.96567E4,4.270726E4,2.7173941E4,6.691039E4,2.3714155E5,2.2420486E5,1.937975E5,2.1978825E5,2.4521725E5,2.0328278E5,4.1662866E5,3.8909153E5,4.2210738E5,4.9943656E5,3.772467E5,3.104926E5,3.6920175E5,4.0820075E5,1.6614589E5,1.8756888E5,2.4181036E5,2.0107933E5,1.10281336E5,1.6713416E5,1.9753716E5,1.6063339E5,3.3427106E5,3.9697784E5,5.0329694E5,4.078784E5,3.1341506E5,3.5801512E5,3.6364106E5,2.5642695E5,2.4240914E4,-6.8781523E3,4.9328504E4,7.346709E3,1.771092E5,1.623157E5,2.1735448E5,1.8335683E5,7.9806805E4,1.4852528E5,1.5602084E5,2.3098283E5,1.9257959E4,2.4624062E4,1.6244358E4,1.24684805E5,-3.683319E4,-1.7243902E4,-5.0529462E2,1.5418496E4,1.4101881E5,1.9050358E5,1.840467E5,2.5273878E5,1.0201619E5,1.7756294E5,1.9539164E5,1.4413488E5,2.7125472E5,3.223732E5,2.1959856E5,3.033672E5,3.187074E5,3.5388884E5,2.12153E5,2.404122E5,3.087799E5,2.7172694E5,4.2078553E5,3.7450903E5,4.7032147E5,5.271861E5,2.8374428E5,3.713825E5,3.7117566E5,4.1656416E5],"categories":[],"categories_nodes":[],"categories_segments":[],"categories_sizes":[],"default_left":[true,true,true,true,true,true,true,true,true,true,true,true,true,false,false,false,true,false,false,false,true,false,true,false,false,false,false,true,true,true,true,true,true,true,true,true,true,true,true,true,true,true,true,false,true,false,true,false,false,false,false,true,true,true,true,false,false,false,false,true,true,true,true,false,false,false,false,true,true,true,true,false,false,false,false,true,true,true,true,false,false,false,false,true,true,true,true,true,true,true,true,true,true,true,true,true,true,true,true,true,true,true,true,true,true,true,true,true,false,false,true,true,true,true,true,true,true,true,true,true,true,true,true,true,true,true,true,true,true,true,true,true,false,true,true,true,true,true,true,true,true,true,true,true,true,true,true,false,false,true,true,true,true,true,true,true,true,true,true,true,true,true,true,true,false,false,false,true,true,true,true,true,true,true,true,false,false,false,false,false,false,false,false,false,false,false,false,false,false,false,false,false,false,false,false,false,false,false,false,false,false,false,false,false,false,false,false,false,false,false,false,false,false,false,false,false,false,false,false,false,false,false,false,false,false,false,false,false,false,false,false,false,false,false,false,false,false,false,false,false,false,false,false,false,false,false,false,false,false,false,false,false,false,false,false,false,false,false,false,false,false,false,false,false,false,false,false,false,false,false,false,false,false,false,false,false,false,false,false,false,false,false,false],"id":4,"left_children":[1,3,5,7,9,11,13,15,17,19,21,23,25,-1,-1,27,29,31,33,35,37,39,41,43,-1,-1,45,47,49,51,53,55,57,59,61,63,65,67,69,71,73,75,77,-1,79,-1,81,-1,-1,-1,-1,83,85,87,89,-1,-1,-1,-1,91,93,95,97,-1,-1,-1,-1,99,101,103,105,-1,-1,-1,-1,107,109,111,113,-1,-1,-1,-1,115,117,119,121,123,125,127,129,131,133,135,137,139,141,143,145,147,149,151,153,155,157,159,161,163,-1,-1,165,167,169,171,173,175,177,179,181,183,185,187,189,191,193,195,197,199,201,203,205,207,-1,209,211,213,215,217,219,221,223,225,227,229,231,233,235,-1,-1,237,239,241,243,245,247,249,251,253,255,257,259,261,263,265,-1,-1,-1,267,269,271,273,275,277,279,281,-1,-1,-1,-1,-1,-1,-1,-1,-1,-1,-1,-1,-1,-1,-1,-1,-1,-1,-1,-1,-1,-1,-1,-1,-1,-1,-1,-1,-1,-1,-1,-1,-1,-1,-1,-1,-1,-1,-1,-1,-1,-1,-1,-1,-1,-1,-1,-1,-1,-1,-1,-1,-1,-1,-1,-1,-1,-1,-1,-1,-1,-1,-1,-1,-1,-1,-1,-1,-1,-1,-1,-1,-1,-1,-1,-1,-1,-1,-1,-1,-1,-1,-1,-1,-1,-1,-1,-1,-1,-1,-1,-1,-1,-1,-1,-1,-1,-1,-1,-1,-1,-1,-1,-1,-1,-1,-1,-1],"loss_changes":[1.6044307E14,2.2925462E13,6.4076655E12,1.3440314E15,8.618802E14,2.76343E12,1.0874698E12,4.201904E12,4.408247E13,6.0940217E12,2.379734E13,6.076498E8,1.6795186E11,0E0,0E0,1.6166693E12,9.244582E12,5.1658726E12,2.0628728E13,4.02727E12,8.475212E12,2.9545684E12,1.036738E13,8.646033E9,0E0,0E0,1.9323732E11,3.799341E12,1.539613E13,9.403116E13,6.013351E13,1.5219904E13,2.886718E13,7.883607E13,3.3986237E14,1.0479672E13,2.669797E13,5.736464E13,1.00525555E14,7.394583E12,1.1808669E13,2.3572794E13,1.3057721E14,0E0,6.890392E11,0E0,8.204027E11,0E0,0E0,0E0,0E0,5.473766E11,4.892404E11,3.915194E11,8.0422214E11,0E0,0E0,0E0,0E0,2.5297022E12,1.785834E12,4.9515604E12,1.0832579E13,0E0,0E0,0E0,0E0,3.522033E11,9.729443E11,2.3279334E12,5.868905E12,0E0,0E0,0E0,0E0,1.7692413E11,7.942334E10,1.5467251E12,1.2937515E13,0E0,0E0,0E0,0E0,2.9937967E12,1.02045686E12,1.7567423E12,2.499734E12,7.170147E11,3.285973E12,3.696159E12,3.017801E11,1.6228601E12,1.5128687E12,3.0696265E12,1.9030396E11,5.3930696E12,4.010258E12,7.281983E12,3.7742025E11,4.395455E11,7.208606E11,7.095756E11,2.4725087E12,8.307632E10,1.681174E12,1.1854445E12,6.3126456E12,4.524815E10,0E0,0E0,4.7999615E10,2.4363286E12,6.5959625E12,1.4287678E13,1.982463E12,5.402379E11,1.4332166E10,3.631701E11,3.4256722E11,3.5679686E11,5.4353986E10,1.750089E11,3.218153E11,3.1376304E11,3.3985564E11,9.237745E10,4.37209E10,1.7197905E11,1.0408648E12,4.158544E11,9.762446E10,8.411257E10,0E0,7.29272E11,5.281971E11,2.269454E11,7.425596E11,6.253791E11,8.35002E10,1.0463614E12,2.883198E12,3.682817E12,4.953473E11,2.4514868E12,4.8488503E12,1.06760136E12,7.9213625E11,0E0,0E0,5.4646453E11,1.4151424E11,1.28630915E11,2.8588376E11,1.6063408E12,8.839475E11,5.9862876E9,9.6671806E11,4.4429083E11,1.3599623E11,8.720881E11,7.3756E11,9.0766416E11,1.0841185E12,2.7653046E11,0E0,0E0,0E0,1.6321043E12,1.2602625E11,9.3623576E11,6.6421E11,1.5496779E12,7.7651667E11,3.118163E12,3.7393898E11,0E0,0E0,0E0,0E0,0E0,0E0,0E0,0E0,0E0,0E0,0E0,0E0,0E0,0E0,0E0,0E0,0E0,0E0,0E0,0E0,0E0,0E0,0E0,0E0,0E0,0E0,0E0,0E0,0E0,0E0,0E0,0E0,0E0,0E0,0E0,0E0,0E0,0E0,0E0,0E0,0E0,0E0,0E0,0E0,0E0,0E0,0E0,0E0,0E0,0E0,0E0,0E0,0E0,0E0,0E0,0E0,0E0,0E0,0E0,0E0,0E0,0E0,0E0,0E0,0E0,0E0,0E0,0E0,0E0,0E0,0E0,0E0,0E0,0E0,0E0,0E0,0E0,0E0,0E0,0E0,0E0,0E0,0E0,0E0,0E0,0E0,0E0,0E0,0E0,0E0,0E0,0E0,0E0,0E0,0E0,0E0,0E0,0E0,0E0,0E0,0E0,0E0,0E0,0E0,0E0,0E0,0E0,0E0],"parents":[2147483647,0,0,1,1,2,2,3,3,4,4,5,5,6,6,7,7,8,8,9,9,10,10,11,11,12,12,15,15,16,16,17,17,18,18,19,19,20,20,21,21,22,22,23,23,26,26,27,27,28,28,29,29,30,30,31,31,32,32,33,33,34,34,35,35,36,36,37,37,38,38,39,39,40,40,41,41,42,42,44,44,46,46,51,51,52,52,53,53,54,54,59,59,60,60,61,61,62,62,67,67,68,68,69,69,70,70,75,75,76,76,77,77,78,78,83,83,84,84,85,85,86,86,87,87,88,88,89,89,90,90,91,91,92,92,93,93,94,94,95,95,96,96,97,97,98,98,99,99,100,100,101,101,102,102,103,103,104,104,105,105,106,106,107,107,110,110,111,111,112,112,113,113,114,114,115,115,116,116,117,117,118,118,119,119,120,120,121,121,122,122,123,123,124,124,125,125,126,126,127,127,128,128,129,129,130,130,131,131,133,133,134,134,135,135,136,136,137,137,138,138,139,139,140,140,141,141,142,142,143,143,144,144,145,145,146,146,149,149,150,150,151,151,152,152,153,153,154,154,155,155,156,156,157,157,158,158,159,159,160,160,161,161,162,162,163,163,167,167,168,168,169,169,170,170,171,171,172,172,173,173,174,174],"right_children":[2,4,6,8,10,12,14,16,18,20,22,24,26,-1,-1,28,30,32,34,36,38,40,42,44,-1,-1,46,48,50,52,54,56,58,60,62,64,66,68,70,72,74,76,78,-1,80,-1,82,-1,-1,-1,-1,84,86,88,90,-1,-1,-1,-1,92,94,96,98,-1,-1,-1,-1,100,102,104,106,-1,-1,-1,-1,108,110,112,114,-1,-1,-1,-1,116,118,120,122,124,126,128,130,132,134,136,138,140,142,144,146,148,150,152,154,156,158,160,162,164,-1,-1,166,168,170,172,174,176,178,180,182,184,186,188,190,192,194,196,198,200,202,204,206,208,-1,210,212,214,216,218,220,222,224,226,228,230,232,234,236,-1,-1,238,240,242,244,246,248,250,252,254,256,258,260,262,264,266,-1,-1,-1,268,270,272,274,276,278,280,282,-1,-1,-1,-1,-1,-1,-1,-1,-1,-1,-1,-1,-1,-1,-1,-1,-1,-1,-1,-1,-1,-1,-1,-1,-1,-1,-1,-1,-1,-1,-1,-1,-1,-1,-1,-1,-1,-1,-1,-1,-1,-1,-1,-1,-1,-1,-1,-1,-1,-1,-1,-1,-1,-1,-1,-1,-1,-1,-1,-1,-1,-1,-1,-1,-1,-1,-1,-1,-1,-1,-1,-1,-1,-1,-1,-1,-1,-1,-1,-1,-1,-1,-1,-1,-1,-1,-1,-1,-1,-1,-1,-1,-1,-1,-1,-1,-1,-1,-1,-1,-1,-1,-1,-1,-1,-1,-1,-1],"split_conditions":[6.520685E1,5E-1,5E-1,1.2617325E5,2.0268675E5,1.1475E5,8.91E4,5E-1,5E-1,5E-1,5E-1,5E0,2.5E0,-5.5030633E4,-2.8750889E4,-4.46E3,-2.7655E3,-3.1515E3,-3.2335E3,-4.005E3,-3.2485E3,-2.1925E3,-7.673E3,-1.7565E3,-1.0344867E4,-9.565056E3,-2.545E3,9.5625E4,9.72E4,8.3025E4,8.70795E4,2.08125E5,2.2725E5,2.28375E5,2.2505625E5,1.0575E5,1.295055E5,1.2015E5,1.261305E5,3.8025E5,3.1275E5,3.14325E5,2.710395E5,-1.4912018E4,8.2125E4,-7.047152E3,2.043E5,-5.9685728E3,2.5657018E4,-1.3609245E4,1.2932041E4,5.5E0,4.5E0,3.5E0,1.25E1,4.945891E4,9.089267E4,4.1894375E4,8.660245E4,3.5E0,4.5E0,4.5E0,4.5E0,-2.1411896E4,4.2624934E4,-6.491819E3,2.7811232E4,1.5E0,4.5E0,3.5E0,2.5E0,7.746905E4,1.4808255E5,5.4780605E4,1.0384234E5,9.5E0,2.5E0,2.5E0,4.5E0,-1.6161383E4,-6.291648E3,2.9031567E3,2.2891354E4,5E-1,5E-1,5E-1,5E-1,5E-1,5E-1,5E-1,5E-1,5E-1,5E-1,5E-1,5E-1,5E-1,5E-1,5E-1,5E-1,5E-1,5E-1,5E-1,5E-1,5E-1,5E-1,5E-1,5E-1,5E-1,1.12608086E5,1.5428512E5,5E-1,5E-1,5E-1,5E-1,5E-1,1.5E0,2.5E0,1.15E1,9.5E0,1.5E0,3.5E0,5.5E0,9.5E0,2.5E0,1.5E0,9.5E0,1.15E1,5.5E0,3.5E0,1.45E1,1.45E1,2.5E0,8.366025E4,7.5E0,1.05E1,1.5E0,1.5E0,1.15E1,9.5E0,1.5E0,3.5E0,5.5E0,1.25E1,1.5E0,3.5E0,8.5E0,1.25E1,-1.0105918E4,1.5005118E4,4.5E0,1.05E1,2.5E0,2.5E0,5.5E0,5.5E0,2.5E0,2.5E0,5.5E0,5.5E0,1.5E0,1.5E0,1.45E1,3.5E0,3.5E0,9.947436E4,1.6927355E5,1.6033412E5,1.5E0,1.5E0,5.5E0,3.5E0,3.5E0,1.5E0,5.5E0,5.5E0,-2.8288084E4,-1.4421939E4,7.585787E2,-2.0059818E3,-2.6640918E4,-1.0209872E4,-1.4283221E4,1.7116104E3,1.9119035E4,2.5649312E4,3.5732203E4,3.2586139E4,5.895612E3,1.8120932E4,3.0460275E4,4.13068E4,-2.2452664E4,-4.6460117E3,-1.0481674E4,7.17139E3,-2.6573047E4,-2.2978299E4,-1.1191535E4,-6.553061E3,9.509765E3,1.1928461E4,2.7876242E4,1.8104854E4,-5.89701E3,1.2812179E4,8.1521826E3,2.0073117E4,7.114247E4,6.726146E4,5.8139254E4,6.593648E4,7.356518E4,6.0984836E4,1.249886E5,1.1672746E5,1.2663222E5,1.4983097E5,1.1317401E5,9.314778E4,1.1076053E5,1.2246023E5,4.984377E4,5.6270664E4,7.254311E4,6.03238E4,3.3084402E4,5.014025E4,5.926115E4,4.819002E4,1.0028132E5,1.1909336E5,1.509891E5,1.2236352E5,9.402452E4,1.0740454E5,1.0909232E5,7.6928086E4,7.2722744E3,-2.0634458E3,1.4798552E4,2.2040127E3,5.313276E4,4.869471E4,6.5206348E4,5.500705E4,2.3942043E4,4.4557586E4,4.6806254E4,6.929485E4,5.7773877E3,7.387219E3,4.8733076E3,3.740544E4,-1.1049958E4,-5.173171E3,-1.515884E2,4.625549E3,4.2305645E4,5.7151074E4,5.521401E4,7.582164E4,3.0604857E4,5.3268883E4,5.8617496E4,4.3240465E4,8.137642E4,9.671196E4,6.587957E4,9.101016E4,9.561223E4,1.0616666E5,6.3645902E4,7.2123664E4,9.263398E4,8.1518086E4,1.26235664E5,1.1235271E5,1.4109645E5,1.5815584E5,8.512329E4,1.1141476E5,1.113527E5,1.2496925E5],"split_indices":[6,0,0,10,10,10,10,9,9,9,9,9,9,0,0,2,2,2,2,2,2,2,2,2,0,0,2,10,10,10,10,10,10,10,10,10,10,10,10,10,10,10,10,0,10,0,10,0,0,0,0,9,9,9,9,0,0,0,0,9,9,9,9,0,0,0,0,9,9,9,9,0,0,0,0,9,9,9,9,0,0,0,0,12,12,12,12,12,12,12,12,12,12,12,12,12,12,12,12,12,12,12,12,12,12,12,12,12,0,0,12,12,12,12,12,9,9,9,9,9,9,9,9,9,9,9,9,9,9,9,9,9,0,9,9,9,9,9,9,9,9,9,9,9,9,9,9,0,0,9,9,9,9,9,9,9,9,9,9,9,9,9,9,9,0,0,0,9,9,9,9,9,9,9,9,0,0,0,0,0,0,0,0,0,0,0,0,0,0,0,0,0,0,0,0,0,0,0,0,0,0,0,0,0,0,0,0,0,0,0,0,0,0,0,0,0,0,0,0,0,0,0,0,0,0,0,0,0,0,0,0,0,0,0,0,0,0,0,0,0,0,0,0,0,0,0,0,0,0,0,0,0,0,0,0,0,0,0,0,0,0,0,0,0,0,0,0,0,0,0,0,0,0,0,0,0,0,0,0,0,0,0,0],"split_type":[0,0,0,0,0,0,0,0,0,0,0,0,0,0,0,0,0,0,0,0,0,0,0,0,0,0,0,0,0,0,0,0,0,0,0,0,0,0,0,0,0,0,0,0,0,0,0,0,0,0,0,0,0,0,0,0,0,0,0,0,0,0,0,0,0,0,0,0,0,0,0,0,0,0,0,0,0,0,0,0,0,0,0,0,0,0,0,0,0,0,0,0,0,0,0,0,0,0,0,0,0,0,0,0,0,0,0,0,0,0,0,0,0,0,0,0,0,0,0,0,0,0,0,0,0,0,0,0,0,0,0,0,0,0,0,0,0,0,0,0,0,0,0,0,0,0,0,0,0,0,0,0,0,0,0,0,0,0,0,0,0,0,0,0,0,0,0,0,0,0,0,0,0,0,0,0,0,0,0,0,0,0,0,0,0,0,0,0,0,0,0,0,0,0,0,0,0,0,0,0,0,0,0,0,0,0,0,0,0,0,0,0,0,0,0,0,0,0,0,0,0,0,0,0,0,0,0,0,0,0,0,0,0,0,0,0,0,0,0,0,0,0,0,0,0,0,0,0,0,0,0,0,0,0,0,0,0,0,0,0,0,0,0,0,0,0,0,0,0,0,0,0,0,0,0,0,0,0,0,0,0,0,0],"sum_hessian":[2.14301E5,2.09225E5,5.076E3,1.37077E5,7.2148E4,4.326E3,7.5E2,5.7665E4,7.9412E4,4.7895E4,2.4253E4,2.68E3,1.646E3,1.9E2,5.6E2,9.24E3,4.8425E4,1.4199E4,6.5213E4,1.0923E4,3.6972E4,4.197E3,2.0056E4,2.608E3,7.2E1,7.5E1,1.571E3,1.371E3,7.869E3,2.4412E4,2.4013E4,3.902E3,1.0297E4,1.3507E4,5.1706E4,1.704E3,9.219E3,1.2065E4,2.4907E4,1.834E3,2.363E3,2.006E3,1.805E4,6.1E1,2.547E3,1.12E2,1.459E3,6.5E2,7.21E2,3.982E3,3.887E3,8.879E3,1.5533E4,7.033E3,1.698E4,2.783E3,1.119E3,8.771E3,1.526E3,1.0184E4,3.323E3,4.1258E4,1.0448E4,2.74E2,1.43E3,3.053E3,6.166E3,4.492E3,7.573E3,8.81E3,1.6097E4,1.689E3,1.45E2,1.775E3,5.88E2,1.351E3,6.55E2,9.967E3,8.083E3,1.283E3,1.264E3,1.242E3,2.17E2,7.51E3,1.369E3,1.2287E4,3.246E3,1.308E3,5.725E3,1.6199E4,7.81E2,3.662E3,6.522E3,2.33E3,9.93E2,2.5475E4,1.5783E4,7.203E3,3.245E3,3.11E2,4.181E3,5.435E3,2.138E3,1.877E3,6.933E3,2.544E3,1.3553E4,1.287E3,6.4E1,6.9E1,5.86E2,1.598E3,8.369E3,5.564E3,2.519E3,5.408E3,2.102E3,8.85E2,4.84E2,9.059E3,3.228E3,2.253E3,9.93E2,8.08E2,5E2,3.699E3,2.026E3,1.0638E4,5.561E3,5.03E2,2.78E2,2.537E3,1.125E3,4.532E3,1.99E3,1.69E3,6.4E2,7.19E2,2.74E2,1.8057E4,7.418E3,1.0788E4,4.995E3,5.058E3,2.145E3,2.25E3,9.95E2,2.24E2,8.7E1,3.045E3,1.136E3,3.992E3,1.443E3,1.494E3,6.44E2,1.296E3,5.81E2,4.768E3,2.165E3,1.722E3,8.22E2,9.212E3,4.341E3,9.81E2,3.06E2,4.61E2,1.25E2,1.072E3,5.26E2,5.668E3,2.701E3,3.792E3,1.772E3,1.724E3,7.95E2,2.66E2,5.142E3,1.85E2,1.917E3,7.4E2,1.45E2,2.58E2,2.26E2,8.31E2,8.228E3,6.32E2,2.596E3,1.11E2,2.142E3,5.24E2,4.69E2,7.06E2,1.02E2,3.66E2,1.34E2,2.858E3,8.41E2,1.822E3,2.04E2,4.973E3,5.665E3,1.273E3,4.288E3,3.49E2,1.54E2,1.85E2,9.3E1,1.748E3,7.89E2,2.721E3,1.811E3,1.615E3,3.75E2,4.4E2,1.25E3,1.79E2,4.61E2,5.2E2,1.99E2,1.21E2,1.53E2,2.69E3,1.5367E4,2.793E3,4.625E3,1.296E3,9.492E3,4.596E3,3.99E2,7.35E2,4.323E3,1.115E3,1.03E3,1.331E3,9.19E2,9.19E2,7.6E1,2.297E3,7.48E2,1.049E3,8.7E1,7.41E2,3.251E3,3.24E2,1.119E3,5.25E2,9.69E2,2.79E2,3.65E2,1.033E3,2.63E2,4.82E2,9.9E1,1.981E3,2.787E3,9.79E2,1.186E3,1.216E3,5.06E2,6.1E2,2.12E2,9.05E3,1.62E2,4.63E2,3.878E3,1.27E2,8.54E2,7.28E2,3.44E2,3.62E2,1.64E2,3.993E3,1.675E3,6.45E2,2.056E3,2.798E3,9.94E2,3.02E2,1.47E3,6.62E2,1.062E3,3.2E2,4.75E2],"tree_param":{"num_deleted":"0","num_feature":"14","num_nodes":"283","size_leaf_vector":"0"}},{"base_weights":[1.0092445E5,9.199427E4,1.21058414E5,9.5223664E4,8.441058E4,1.23196766E5,1.1616208E5,4.868797E4,2.0744233E5,8.779639E3,1.4937184E5,7.179075E4,2.5219461E5,4.2698703E4,1.8653789E5,4.9972145E4,2.91446E4,2.0934378E5,1.7999627E5,8.1115483E3,3.2738098E4,1.5139034E5,1.2383769E5,8.124421E4,3.656531E4,2.6656444E5,1.8941797E5,4.8112973E4,2.7445012E4,1.985288E5,1.464134E5,-3.019476E4,8.244483E4,-5.0445977E4,5.5201805E4,1.8347144E5,3.589599E5,1.511384E5,2.7291672E5,-4.605556E4,4.0335105E4,-6.2758257E3,6.1169418E4,1.2525808E5,2.7124578E5,9.2587766E4,1.9747492E5,6.377293E3,1.14793516E5,-3.1255559E4,6.5158168E4,2.4024152E5,4.9098912E5,1.643875E5,2.892142E5,-1.2275519E4,8.344391E4,-7.870867E4,4.3409746E4,1.658408E5,3.6502766E5,1.05318336E5,1.979801E5,-6.663614E4,-4.3967983E3,6.350674E4,1.0844285E5,-8.130495E4,-3.1001506E4,3.3154715E4,9.044707E4,1.5776984E5,2.2222547E5,2.921052E5,3.9106588E5,1.4256581E5,1.701449E5,2.4521486E5,3.6945722E5,-9.208909E4,-2.3264088E4,2.566784E4,5.2823977E4,-4.4576016E4,1.4406016E4,7.299992E4,5.034836E4,1.0208761E5,1.5053552E5,2.4990462E5,4.2587347E5,7.5649984E4,9.8970586E4,1.7768375E5,3.3069947E5,-3.746294E4,3.0998094E4,9.2482836E4,1.434616E5,-8.247193E4,-2.4281674E4,4.3092855E4,9.5528414E4,2.029669E5,2.8492925E5,4.6211528E5,7.536945E5,1.3926645E5,1.7394403E5,2.394634E5,3.114738E5,-5.926439E4,9.847114E3,6.127501E4,1.0166272E5,-1.15670484E5,-6.5283695E4,9.584277E3,6.2431066E4,1.5613456E5,2.2883881E5,3.2923556E5,7.2996544E5,9.214697E4,1.3956334E5,1.8850694E5,3.2318256E5,-9.4152984E4,-6.3344527E4,-2.9893902E4,-1.153683E4,2.7065752E4,-2.0115531E3,5.344608E4,3.9767465E4,4.141092E3,3.1953996E4,9.875132E4,1.0867622E5,1.5141058E5,1.4866417E5,2.5280516E5,1.9233664E5,4.368912E5,4.0711228E5,9.513349E4,2.8271217E4,9.819543E4,1.0083053E5,1.5433753E5,2.1987145E5,-6.571831E4,-4.880976E4,2.2566343E3,2.40504E4,5.0137984E4,8.383076E4,9.869514E4,1.0751146E5,-7.799614E4,-3.9777766E4,1.5129851E3,3.027017E4,6.539641E4,-7.5001694E3,1.6014169E5,1.4823352E5,2.2003706E5,2.4664267E5,3.2507666E5,4.0184453E5,8.436472E4,1.1135412E5,-1.00221625E5,-5.6141457E4,-4.666235E4,-9.563671E4,-4.8410484E4,-5.7097666E3,-4.3161555E4,1.5849423E3,-1.2972857E4,4.1174844E4,-6.1440516E4,1.314245E4,-8.1463745E3,7.315537E4,-3.6745445E4,6.1544758E4,6.156754E4,1.2272608E5,1.02494266E5,1.7683E5,1.149599E5,1.8604752E5,1.3957295E5,1.9017788E5,1.5572708E5,2.6455003E5,1.5637569E5,2.543729E5,3.9447416E5,5.065658E5,3.6471997E5,4.771557E5,6.708148E4,1.5957773E5,6.924981E4,1.7150975E5,3.793806E4,1.631371E5,2.0809011E5,1.1723809E5,2.5601528E5,1.8470902E5,-9.511465E4,-4.309771E4,-9.306832E4,-3.5999348E4,-2.5692334E4,4.2361086E4,-2.0293242E4,3.8615312E4,7.477135E3,6.491208E4,1.8614943E4,9.911902E4,3.971182E4,1.151977E5,8.883018E4,1.4056895E5,-9.58756E4,-4.3375867E4,-2.1176736E4,6.4919477E4,5.6506297E4,-4.3792207E3,3.338238E4,1.1940228E5,1.55808E5,2.9659534E5,1.60973E5,1.17925695E5,2.3343212E5,1.5366002E5,2.9880256E5,7.6882766E4,2.0807742E5,3.3623053E5,4.632449E4,1.0232654E5,6.0607477E4,1.29573016E5,-1.9751831E5,2.408295E5,-1.8809402E5,3.1400194E5,-1.7305439E5,2.576538E5,-1.3662455E5,4.1247025E5,-1.8144133E5,2.7590294E5,-1.363457E5,4.38845E5,-1.0738003E5,4.6206606E5,-1.0935871E5,4.601796E5,-1.2848765E5,4.2727066E5,-1.2203708E5,4.5467188E5,-1.1801432E5,4.6589384E5,-9.896005E4,4.4852838E5,-1.15557516E5,4.8754428E5,-1.2937171E5,4.6475325E5,-1.1668343E5,4.8752644E5,-1.3785299E4,6.747237E5,-7.511207E4,6.2720356E5,-7.244201E4,6.219495E5,-7.466839E4,6.266344E5,-5.012295E4,6.7336E5,-7.272917E4,6.9613575E5,1.993124E4,8.4240006E5,7.6611766E4,9.759597E5,9.707642E4,9.2220856E5,-1.1321696E5,4.2069572E5,-1.1777033E5,5.0624978E5,-5.671231E4,6.467149E5,-2.246202E5,2.7695644E5,-1.4064117E5,5.1204272E5,-1.1009559E5,5.791009E5,-1.8241466E5,1.5627978E5,-1.8987925E5,2.609089E5,-2.0520036E5,1.7362527E5,-1.7741761E5,2.350443E5,-1.0535726E5,4.3711822E5,-1.895624E5,2.3620398E5,-1.0063569E5,4.692131E5,-8.925977E4,4.212445E5,-7.642589E4,4.6850238E5,-1.5373448E5,2.4312475E5,-9.7380164E4,4.5105806E5,-1.04993E5,5.5925225E5,-1.0265707E5,4.7392503E5,-1.16711555E5,4.6404206E5,-1.0678488E5,4.8312353E5,-1.5318917E5,2.9548753E5,-1.3782273E5,3.7542656E5,-1.434252E5,3.133048E5,-1.1091297E5,4.8479188E5,-9.327537E4,4.7931284E5,-5.021897E4,6.5137025E5,-5.357669E4,6.6857944E5,-9.6000086E4,5.677434E5,-7.703755E4,6.780527E5,2.8727883E4,9.1834644E5,4.1328062E4,9.3193925E5,-9.1883555E4,4.3120153E5,-1.2678279E5,4.547417E5,-1.5693545E5,4.6566253E5,-1.9434872E5,-2.0260172E5,2.4923062E5,2.305455E5,-1.35598E5,-1.4022392E5,-1.0985212E5,-1.0033648E5,-1.0685314E5,-1.1470411E5,-1.1847753E5,-1.3439147E5,4.6888903E5,4.196246E5,-1.14762016E5,-1.2483667E5,-1.1881151E5,-1.0356069E5,-7.376321E4,-8.0517016E4,-7.5262234E4,-6.3758824E4,2.2992275E4,1.3536886E4,-1.08135445E5,-1.1927473E5,-8.7474266E4,-1.1306833E5,-5.3169082E4,-5.6471035E4,3.8040758E4,4.8160758E4,9.4898244E5,8.93871E5],"categories":[],"categories_nodes":[],"categories_segments":[],"categories_sizes":[],"default_left":[true,true,true,true,true,true,true,true,true,true,true,true,true,true,true,true,true,true,true,true,true,true,true,true,true,true,true,true,true,true,true,true,true,true,true,true,true,true,true,true,true,true,true,true,true,true,true,true,true,true,true,true,true,true,true,true,true,true,true,true,true,true,true,false,false,false,false,false,false,false,false,false,false,false,false,false,false,false,false,true,true,true,true,false,true,false,false,true,true,true,true,true,true,true,false,false,false,false,false,false,false,false,false,false,false,false,false,false,false,false,false,true,true,true,true,false,true,true,true,true,true,true,false,true,false,false,false,true,true,true,true,true,true,true,true,false,false,true,true,true,true,true,true,true,true,true,false,true,true,true,true,true,true,true,true,true,true,true,true,true,false,true,true,true,false,true,true,true,true,true,false,true,true,true,true,false,false,true,false,true,true,true,true,false,false,true,true,false,false,true,true,true,false,false,true,true,true,true,true,false,false,false,false,false,false,false,false,true,false,false,false,false,false,false,false,true,false,false,false,true,false,false,false,false,true,false,false,true,false,true,false,false,false,true,false,false,false,true,false,false,false,false,false,false,false,false,false,false,false,false,true,false,true,true,true,false,false,false,false,false,false,false,false,true,false,true,false,true,false,false,false,true,true,true,false,false,false,false,false,false,false,true,false,false,false,false,false,false,false,true,false,false,false,true,false,true,false,false,false,false,false,false,false,false,false,false,false,false,false,false,false,false,false,false,false,false,false,false,false,false,false,false,false,false,false,false,false,false,false,false,false,false,false,false,false,false,false,false,false,false,false,false,false,false,false,false,false,false,false,true,false,true,false,false,false,true,false,false,false,false,false,false,false,true,true,false,false,false,false,false,false,false,false,false,false,false,false,false,false,false,false,false,false,false,false,false,false,false,false,false,false,false,false,false,false,false,false,false,false,false,false,false,false,false,false],"id":5,"left_children":[1,3,5,7,9,11,13,15,17,19,21,23,25,27,29,31,33,35,37,39,41,43,45,47,49,51,53,55,57,59,61,63,65,67,69,71,73,75,77,79,81,83,85,87,89,91,93,95,97,99,101,103,105,107,109,111,113,115,117,119,121,123,125,-1,-1,-1,-1,-1,-1,-1,-1,-1,-1,-1,-1,-1,-1,-1,-1,127,129,131,133,-1,135,-1,-1,137,139,141,143,145,147,149,-1,-1,-1,-1,-1,-1,-1,-1,-1,-1,-1,-1,-1,-1,-1,-1,-1,151,153,155,157,-1,159,161,163,165,167,169,-1,171,-1,-1,-1,173,175,177,179,181,183,185,187,-1,-1,189,191,193,195,197,199,201,203,205,-1,207,209,211,213,215,217,219,221,223,225,227,229,231,-1,233,235,237,-1,239,241,243,245,247,-1,249,251,253,255,-1,-1,257,259,261,263,265,267,-1,269,271,273,-1,275,277,279,281,283,285,287,289,291,293,295,-1,-1,297,299,-1,-1,301,-1,303,305,307,309,-1,311,-1,-1,313,315,-1,317,319,321,323,325,327,329,331,333,335,337,339,341,-1,-1,343,345,347,-1,349,351,353,-1,355,357,359,-1,361,-1,-1,363,365,367,-1,369,371,373,-1,-1,-1,-1,-1,-1,-1,-1,375,-1,377,-1,379,-1,-1,-1,381,383,385,-1,-1,-1,-1,-1,-1,-1,387,-1,-1,-1,-1,-1,-1,-1,389,-1,-1,-1,391,-1,393,-1,-1,-1,-1,-1,-1,-1,-1,-1,-1,-1,-1,-1,-1,-1,-1,-1,-1,-1,-1,-1,-1,-1,-1,-1,-1,-1,-1,-1,-1,-1,-1,-1,-1,-1,-1,-1,-1,-1,-1,-1,-1,-1,-1,-1,-1,-1,-1,-1,-1,-1,-1,-1,395,-1,397,-1,-1,-1,399,-1,-1,-1,-1,-1,-1,-1,401,403,-1,-1,-1,-1,-1,-1,-1,-1,-1,-1,-1,-1,-1,-1,-1,-1,-1,-1,-1,-1,-1,-1,-1,-1,-1,-1,-1,-1,-1,-1,-1,-1,-1,-1,-1,-1,-1,-1,-1,-1],"loss_changes":[3.8486934E13,3.630858E12,6.868592E11,5.4311573E14,2.1759593E14,3.0355802E14,1.0337471E14,1.8448562E12,1.5863193E12,3.275235E11,1.2256092E12,1.0899838E13,1.176056E13,8.077999E11,4.909651E12,1.795796E14,9.40164E12,1.1035207E14,5.293732E12,3.4750757E13,6.158047E11,6.914961E13,4.0157965E12,6.482052E13,1.3431352E13,6.268827E13,6.064301E12,1.5404861E13,4.3442024E12,4.2782102E13,4.977603E12,1.8696114E13,2.417174E13,6.705974E11,2.6533628E12,2.4206436E13,9.007285E12,2.4265726E11,1.2404675E12,7.791013E12,2.2864556E12,1.8553728E11,4.064477E10,1.0614945E13,1.3028314E13,1.3160992E11,1.3639646E12,8.6202253E12,1.1396796E13,7.334334E11,3.264431E12,1.5817224E13,8.406895E12,4.6342026E11,5.3001742E11,2.77052E12,1.8389842E12,1.6533776E11,1.4335122E12,4.0141503E12,1.6821072E13,5.884084E11,1.2283145E12,0E0,0E0,0E0,0E0,0E0,0E0,0E0,0E0,0E0,0E0,0E0,0E0,0E0,0E0,0E0,0E0,1.451334E11,3.8614807E11,2.2215052E11,5.449659E10,0E0,2.73856E10,0E0,0E0,2.065443E11,1.1341398E10,5.73764E11,7.652088E10,3.0993954E11,2.9884416E7,4.419989E11,0E0,0E0,0E0,0E0,0E0,0E0,0E0,0E0,0E0,0E0,0E0,0E0,0E0,0E0,0E0,0E0,0E0,5.715709E10,1.9535808E11,5.1572376E11,4.2049995E10,0E0,7.9412E10,1.33918745E11,2.9579805E11,1.7731E11,1.3058127E11,3.3832095E11,0E0,1.4008346E11,0E0,0E0,0E0,5.284928E11,8.838939E10,1.4209149E12,7.445217E11,3.0873635E12,2.4877818E11,7.811952E12,5.1203408E11,0E0,0E0,5.5976007E12,1.3367247E12,7.4464415E12,1.0417351E12,3.7643375E12,3.678043E11,8.616988E11,5.098533E11,4.2912802E11,0E0,1.3420724E12,1.0067963E12,5.7946774E11,1.9879009E11,3.500005E11,1.8447997E11,1.3240367E12,4.0771948E11,8.672772E11,6.7688045E11,1.6153481E12,5.172447E11,1.01066605E11,0E0,8.30472E11,2.0468625E11,2.3649116E12,0E0,2.2277375E12,7.381975E11,5.1837823E11,2.5572105E12,1.4424547E12,0E0,4.593282E11,2.5059996E11,6.564649E13,1.5447533E13,0E0,0E0,6.8564313E13,7.534449E13,2.3219128E13,7.649026E13,6.38742E13,2.548975E14,0E0,1.2918038E13,8.224239E13,3.6602996E14,0E0,1.4858424E13,1.857774E14,3.2922287E14,2.459317E14,2.5068415E13,2.7993738E14,3.408651E14,2.3709939E14,5.772518E13,4.409716E13,4.1686577E14,0E0,0E0,3.4577586E13,1.9242957E13,0E0,0E0,1.0597612E13,0E0,3.7122313E13,1.943133E13,8.048619E12,1.3695235E13,0E0,1.8185837E13,0E0,0E0,5.03219E12,1.3309442E13,0E0,8.98258E12,2.754428E13,2.829495E13,6.7842264E12,2.8495124E13,1.4179235E13,5.8309327E13,5.0011733E12,3.8049967E13,2.730729E13,1.013772E14,4.1430974E13,2.569111E13,0E0,0E0,1.777756E13,9.583359E12,6.583978E12,0E0,5.5967123E13,3.8976715E13,3.7380218E14,0E0,1.4704253E14,5.467636E13,6.752623E13,0E0,3.6996253E13,0E0,0E0,1.7832847E14,1.1501458E13,3.6916427E13,0E0,1.9279938E13,1.9818086E10,3.0664557E10,0E0,0E0,0E0,0E0,0E0,0E0,0E0,0E0,3.9007027E8,0E0,1.929275E10,0E0,3.826883E10,0E0,0E0,0E0,5.304746E10,1.2862253E11,7.094665E10,0E0,0E0,0E0,0E0,0E0,0E0,0E0,5.0304385E10,0E0,0E0,0E0,0E0,0E0,0E0,0E0,7.6032246E9,0E0,0E0,0E0,5.098832E9,0E0,4.051901E10,0E0,0E0,0E0,0E0,0E0,0E0,0E0,0E0,0E0,0E0,0E0,0E0,0E0,0E0,0E0,0E0,0E0,0E0,0E0,0E0,0E0,0E0,0E0,0E0,0E0,0E0,0E0,0E0,0E0,0E0,0E0,0E0,0E0,0E0,0E0,0E0,0E0,0E0,0E0,0E0,0E0,0E0,0E0,0E0,0E0,0E0,0E0,0E0,0E0,0E0,0E0,0E0,0E0,1.348993E10,0E0,3.5505046E10,0E0,0E0,0E0,7.397704E8,0E0,0E0,0E0,0E0,0E0,0E0,0E0,1.50219E10,1.1069607E11,0E0,0E0,0E0,0E0,0E0,0E0,0E0,0E0,0E0,0E0,0E0,0E0,0E0,0E0,0E0,0E0,0E0,0E0,0E0,0E0,0E0,0E0,0E0,0E0,0E0,0E0,0E0,0E0,0E0,0E0,0E0,0E0,0E0,0E0,0E0,0E0,0E0,0E0,0E0,0E0],"parents":[2147483647,0,0,1,1,2,2,3,3,4,4,5,5,6,6,7,7,8,8,9,9,10,10,11,11,12,12,13,13,14,14,15,15,16,16,17,17,18,18,19,19,20,20,21,21,22,22,23,23,24,24,25,25,26,26,27,27,28,28,29,29,30,30,31,31,32,32,33,33,34,34,35,35,36,36,37,37,38,38,39,39,40,40,41,41,42,42,43,43,44,44,45,45,46,46,47,47,48,48,49,49,50,50,51,51,52,52,53,53,54,54,55,55,56,56,57,57,58,58,59,59,60,60,61,61,62,62,79,79,80,80,81,81,82,82,84,84,87,87,88,88,89,89,90,90,91,91,92,92,93,93,111,111,112,112,113,113,114,114,116,116,117,117,118,118,119,119,120,120,121,121,123,123,127,127,128,128,129,129,130,130,131,131,132,132,133,133,134,134,137,137,138,138,139,139,140,140,141,141,142,142,143,143,144,144,145,145,147,147,148,148,149,149,150,150,151,151,152,152,153,153,154,154,155,155,156,156,157,157,158,158,159,159,161,161,162,162,163,163,165,165,166,166,167,167,168,168,169,169,171,171,172,172,173,173,174,174,177,177,178,178,179,179,180,180,181,181,182,182,184,184,185,185,186,186,188,188,189,189,190,190,191,191,192,192,193,193,194,194,195,195,196,196,197,197,198,198,201,201,202,202,205,205,207,207,208,208,209,209,210,210,212,212,215,215,216,216,218,218,219,219,220,220,221,221,222,222,223,223,224,224,225,225,226,226,227,227,228,228,229,229,230,230,233,233,234,234,235,235,237,237,238,238,239,239,241,241,242,242,243,243,245,245,248,248,249,249,250,250,252,252,253,253,254,254,263,263,265,265,267,267,271,271,272,272,273,273,281,281,289,289,293,293,295,295,349,349,351,351,355,355,363,363,364,364],"right_children":[2,4,6,8,10,12,14,16,18,20,22,24,26,28,30,32,34,36,38,40,42,44,46,48,50,52,54,56,58,60,62,64,66,68,70,72,74,76,78,80,82,84,86,88,90,92,94,96,98,100,102,104,106,108,110,112,114,116,118,120,122,124,126,-1,-1,-1,-1,-1,-1,-1,-1,-1,-1,-1,-1,-1,-1,-1,-1,128,130,132,134,-1,136,-1,-1,138,140,142,144,146,148,150,-1,-1,-1,-1,-1,-1,-1,-1,-1,-1,-1,-1,-1,-1,-1,-1,-1,152,154,156,158,-1,160,162,164,166,168,170,-1,172,-1,-1,-1,174,176,178,180,182,184,186,188,-1,-1,190,192,194,196,198,200,202,204,206,-1,208,210,212,214,216,218,220,222,224,226,228,230,232,-1,234,236,238,-1,240,242,244,246,248,-1,250,252,254,256,-1,-1,258,260,262,264,266,268,-1,270,272,274,-1,276,278,280,282,284,286,288,290,292,294,296,-1,-1,298,300,-1,-1,302,-1,304,306,308,310,-1,312,-1,-1,314,316,-1,318,320,322,324,326,328,330,332,334,336,338,340,342,-1,-1,344,346,348,-1,350,352,354,-1,356,358,360,-1,362,-1,-1,364,366,368,-1,370,372,374,-1,-1,-1,-1,-1,-1,-1,-1,376,-1,378,-1,380,-1,-1,-1,382,384,386,-1,-1,-1,-1,-1,-1,-1,388,-1,-1,-1,-1,-1,-1,-1,390,-1,-1,-1,392,-1,394,-1,-1,-1,-1,-1,-1,-1,-1,-1,-1,-1,-1,-1,-1,-1,-1,-1,-1,-1,-1,-1,-1,-1,-1,-1,-1,-1,-1,-1,-1,-1,-1,-1,-1,-1,-1,-1,-1,-1,-1,-1,-1,-1,-1,-1,-1,-1,-1,-1,-1,-1,-1,-1,396,-1,398,-1,-1,-1,400,-1,-1,-1,-1,-1,-1,-1,402,404,-1,-1,-1,-1,-1,-1,-1,-1,-1,-1,-1,-1,-1,-1,-1,-1,-1,-1,-1,-1,-1,-1,-1,-1,-1,-1,-1,-1,-1,-1,-1,-1,-1,-1,-1,-1,-1,-1,-1,-1],"split_conditions":[5E-1,5E-1,5E-1,1.80162E5,1.377E5,1.8197325E5,1.441305E5,5E-1,5E-1,2.5E0,5E-1,5E-1,5E-1,5E-1,5E-1,9.7875E4,9.5175E4,3.41649E5,2.96658E5,9.28215E4,1.0125E5,2.7315E5,2.4525E5,9.914175E4,9.989325E4,3.63375E5,3.1275E5,9.81E4,7.1325E4,2.9313675E5,2.2275E5,7.6275E4,1.3785075E5,7.4097E4,1.4805E5,2.448E5,3.7224E5,2.4525E5,4.2975E5,7.155E4,1.1432475E5,7.875E4,1.1925E5,1.956375E5,4.905E5,1.60875E5,4.3425E5,6.8625E4,1.35387E5,5.86125E4,1.3574025E5,2.32308E5,7.0305525E5,2.0295E5,3.3337575E5,7.06815E4,1.17225E5,5.837175E4,1.089E5,2.4769575E5,5.40135E5,1.8225E5,4.4775E5,-1.9990844E4,-1.3190396E3,1.9052021E4,3.2532857E4,-2.4391486E4,-9.300452E3,9.946415E3,2.7134123E4,4.7330953E4,6.666764E4,8.763156E4,1.17319766E5,4.2769746E4,5.1043473E4,7.356446E4,1.1083717E5,2.5E0,1.5E0,2.5E0,2.5E0,-1.3372806E4,1.5E0,2.1899977E4,1.5104509E4,1.5E0,1.5E0,2.5E0,1.5E0,1.5E0,1.5E0,1.5E0,9.920984E4,-1.1238883E4,9.299429E3,2.7744852E4,4.303848E4,-2.474158E4,-7.2845024E3,1.2927857E4,2.8658525E4,6.0890074E4,8.547878E4,1.386346E5,2.2610836E5,4.1779938E4,5.218321E4,7.183902E4,9.344215E4,1.5E0,1.5E0,1.5E0,1.5E0,-3.470115E4,1.5E0,1.5E0,2.5E0,1.5E0,1.5E0,2.5E0,2.1898964E5,1.5E0,4.1869004E4,5.6552082E4,9.695477E4,4.5382195E1,3.833014E1,3.87137E1,3.229589E1,3.1043835E1,3.2323288E1,3.1495892E1,3.3036987E1,1.2423276E3,9.586199E3,3.5557533E1,4.523288E1,3.822603E1,4.2510956E1,3.0609589E1,4.0520546E1,4.2571236E1,4.090137E1,3.7835617E1,8.481365E3,3.9683563E1,3.5615067E1,3.4335617E1,3.6850685E1,3.4452057E1,3.0550686E1,3.8165756E1,3.1226027E1,3.0368492E1,3.0527397E1,3.0443836E1,3.759041E1,3.541507E1,-1.193333E4,3.801233E1,3.4541096E1,3.6449318E1,-2.250051E3,5.260137E1,3.960411E1,4.4578083E1,4.1342464E1,2.960685E1,1.2055337E5,3.0779453E1,3.1406849E1,3.8025E5,4.0725E5,-1.3998706E4,-2.8691014E4,3.7575E5,5.0625E5,4.0275E5,5.1075E5,5.2425E5,5.4225E5,-1.8432156E4,5.0625E5,5.4675E5,5.8274775E5,-1.1023634E4,6.1425E5,6.0975E5,5.9625E5,6.1425E5,7.8975E5,7.38E5,7.3575E5,7.4475E5,8.145E5,7.9875E5,9.7425E5,4.6912707E4,7.6311875E4,1.05525E6,1.0125E6,1.0941599E5,1.4314672E5,4.6125E5,4.787332E4,6.66E5,7.7625E5,4.2975E5,6.6375E5,6.2427035E4,7.4925E5,7.6804586E4,5.5412707E4,3.06E5,4.365E5,-2.7920498E4,3.5325E5,3.6225E5,5.4225E5,3.7125E5,5.58E5,5.0625E5,6.0075E5,4.0725E5,5.58E5,5.9175E5,5.9175E5,5.9625E5,6.075E5,-2.8762682E4,-1.3012761E4,4.0725E5,4.5225E5,3.825E5,-1.3137662E3,5.2875E5,5.58E5,7.4925E5,8.897861E4,7.3125E5,6.8175E5,8.1675E5,4.6098008E4,1.0125E6,2.306483E4,6.242323E4,1.04175E6,5.2425E5,5.6025E5,1.8182244E4,5.58E5,1.5E0,1.5E0,-5.6428207E4,9.4200586E4,-5.191632E4,7.729614E4,-4.0987367E4,1.2374108E5,-5.4432402E4,8.277088E4,2.5E0,1.316535E5,1.5E0,1.3861983E5,1.5E0,1.3805389E5,-3.8546297E4,1.281812E5,1.5E0,1.5E0,1.5E0,1.3976816E5,-2.9688016E4,1.3455852E5,-3.4667258E4,1.462633E5,-3.8811516E4,1.3942598E5,2.5E0,1.4625794E5,-4.13559E3,2.0241711E5,-2.2533621E4,1.8816108E5,-2.1732604E4,1.8658486E5,2.5E0,1.8799031E5,-1.5036886E4,2.0200802E5,1.5E0,2.0884073E5,1.5E0,2.5272003E5,2.2983531E4,2.927879E5,2.9122928E4,2.766626E5,-3.396509E4,1.2620872E5,-3.53311E4,1.5187494E5,-1.7013693E4,1.9401447E5,-6.738606E4,8.308694E4,-4.219235E4,1.5361283E5,-3.302868E4,1.7373027E5,-5.47244E4,4.6883938E4,-5.6963777E4,7.827267E4,-6.156011E4,5.2087582E4,-5.3225285E4,7.051329E4,-3.1607178E4,1.3113547E5,-5.6868723E4,7.0861195E4,-3.0190707E4,1.4076394E5,-2.6777934E4,1.2637335E5,-2.2927768E4,1.4055072E5,-4.6120348E4,7.293743E4,-2.921405E4,1.3531742E5,-3.14979E4,1.6777569E5,-3.0797123E4,1.4217752E5,-3.501347E4,1.3921262E5,-3.2035467E4,1.4493706E5,-4.5956754E4,8.8646266E4,-4.134682E4,1.1262798E5,-4.3027562E4,9.3991445E4,1.5E0,1.4543756E5,1.5E0,1.4379386E5,-1.5065691E4,1.9541108E5,2.5E0,2.0057384E5,-2.8800027E4,1.7032302E5,-2.3111266E4,2.0341581E5,8.618365E3,2.7550394E5,1.5E0,1.5E0,-2.7565068E4,1.2936046E5,-3.803484E4,1.3642252E5,-4.7080637E4,1.3969877E5,-5.8304617E4,-6.078052E4,7.476919E4,6.916366E4,-4.0679402E4,-4.206718E4,-3.2955637E4,-3.0100943E4,-3.2055943E4,-3.4411234E4,-3.554326E4,-4.031744E4,1.4066672E5,1.2588738E5,-3.4428605E4,-3.7451004E4,-3.5643453E4,-3.1068207E4,-2.2128965E4,-2.4155105E4,-2.2578672E4,-1.9127648E4,6.897683E3,4.061066E3,-3.2440635E4,-3.5782418E4,-2.6242281E4,-3.39205E4,-1.5950726E4,-1.694131E4,1.1412228E4,1.4448228E4,2.8469475E5,2.681613E5],"split_indices":[12,13,13,10,10,10,10,11,11,11,11,11,11,11,11,10,10,10,10,10,10,10,10,10,10,10,10,10,10,10,10,10,10,10,10,10,10,10,10,10,10,10,10,10,10,10,10,10,10,10,10,10,10,10,10,10,10,10,10,10,10,10,10,0,0,0,0,0,0,0,0,0,0,0,0,0,0,0,0,13,13,13,13,0,13,0,0,13,13,13,13,13,13,13,0,0,0,0,0,0,0,0,0,0,0,0,0,0,0,0,0,13,13,13,13,0,13,13,13,13,13,13,0,13,0,0,0,6,6,6,6,6,6,6,6,0,0,6,6,6,6,6,6,6,6,6,0,6,6,6,6,6,6,6,6,6,6,6,6,6,0,6,6,6,0,6,6,6,6,6,0,6,6,4,4,0,0,4,4,4,4,4,4,0,4,4,4,0,4,4,4,4,4,4,4,4,4,4,4,0,0,4,4,0,0,4,0,4,4,4,4,0,4,0,0,4,4,0,4,4,4,4,4,4,4,4,4,4,4,4,4,0,0,4,4,4,0,4,4,4,0,4,4,4,0,4,0,0,4,4,4,0,4,13,13,0,0,0,0,0,0,0,0,13,0,13,0,13,0,0,0,13,13,13,0,0,0,0,0,0,0,13,0,0,0,0,0,0,0,13,0,0,0,13,0,13,0,0,0,0,0,0,0,0,0,0,0,0,0,0,0,0,0,0,0,0,0,0,0,0,0,0,0,0,0,0,0,0,0,0,0,0,0,0,0,0,0,0,0,0,0,0,0,0,0,0,0,0,0,13,0,13,0,0,0,13,0,0,0,0,0,0,0,13,13,0,0,0,0,0,0,0,0,0,0,0,0,0,0,0,0,0,0,0,0,0,0,0,0,0,0,0,0,0,0,0,0,0,0,0,0,0,0,0,0],"split_type":[0,0,0,0,0,0,0,0,0,0,0,0,0,0,0,0,0,0,0,0,0,0,0,0,0,0,0,0,0,0,0,0,0,0,0,0,0,0,0,0,0,0,0,0,0,0,0,0,0,0,0,0,0,0,0,0,0,0,0,0,0,0,0,0,0,0,0,0,0,0,0,0,0,0,0,0,0,0,0,0,0,0,0,0,0,0,0,0,0,0,0,0,0,0,0,0,0,0,0,0,0,0,0,0,0,0,0,0,0,0,0,0,0,0,0,0,0,0,0,0,0,0,0,0,0,0,0,0,0,0,0,0,0,0,0,0,0,0,0,0,0,0,0,0,0,0,0,0,0,0,0,0,0,0,0,0,0,0,0,0,0,0,0,0,0,0,0,0,0,0,0,0,0,0,0,0,0,0,0,0,0,0,0,0,0,0,0,0,0,0,0,0,0,0,0,0,0,0,0,0,0,0,0,0,0,0,0,0,0,0,0,0,0,0,0,0,0,0,0,0,0,0,0,0,0,0,0,0,0,0,0,0,0,0,0,0,0,0,0,0,0,0,0,0,0,0,0,0,0,0,0,0,0,0,0,0,0,0,0,0,0,0,0,0,0,0,0,0,0,0,0,0,0,0,0,0,0,0,0,0,0,0,0,0,0,0,0,0,0,0,0,0,0,0,0,0,0,0,0,0,0,0,0,0,0,0,0,0,0,0,0,0,0,0,0,0,0,0,0,0,0,0,0,0,0,0,0,0,0,0,0,0,0,0,0,0,0,0,0,0,0,0,0,0,0,0,0,0,0,0,0,0,0,0,0,0,0,0,0,0,0,0,0,0,0,0,0,0,0,0,0,0,0,0,0,0,0,0,0,0,0,0,0,0,0,0,0,0,0,0,0,0,0,0,0,0,0,0,0,0,0,0,0,0,0],"sum_hessian":[2.14063E5,1.48291E5,6.5772E4,1.04002E5,4.4289E4,4.5777E4,1.9995E4,7.3516E4,3.0486E4,2.0464E4,2.3825E4,3.2733E4,1.3044E4,9.783E3,1.0212E4,6.8983E4,4.533E3,2.851E4,1.976E3,1.9909E4,5.55E2,2.2079E4,1.746E3,2.5807E4,6.926E3,1.0614E4,2.43E3,7.22E3,2.563E3,7.862E3,2.35E3,1.9887E4,4.9096E4,1.118E3,3.415E3,2.4307E4,4.203E3,1.508E3,4.68E2,7.426E3,1.2483E4,2.34E2,3.21E2,1.8127E4,3.952E3,1.226E3,5.2E2,7.986E3,1.7821E4,2.054E3,4.872E3,9.5E3,1.114E3,1.943E3,4.87E2,2.665E3,4.555E3,3.35E2,2.228E3,6.572E3,1.29E3,1.308E3,1.042E3,8.243E3,1.1644E4,2.8405E4,2.0691E4,4.32E2,6.86E2,2.101E3,1.314E3,1.4615E4,9.692E3,1.364E3,2.839E3,1.04E3,4.68E2,3.64E2,1.04E2,2.459E3,4.967E3,5.741E3,6.742E3,8.2E1,1.52E2,1.53E2,1.68E2,9.458E3,8.669E3,3.473E3,4.79E2,3.36E2,8.9E2,4.53E2,6.7E1,2.872E3,5.114E3,1.0022E4,7.799E3,2.46E2,1.808E3,2.822E3,2.05E3,5.18E3,4.32E3,1.004E3,1.1E2,5.36E2,1.407E3,1.51E2,3.36E2,8.53E2,1.812E3,2.055E3,2.5E3,8.9E1,2.46E2,8.02E2,1.426E3,5.695E3,8.77E2,1.175E3,1.15E2,9.45E2,3.63E2,9.69E2,7.3E1,2.294E3,1.65E2,3.173E3,1.794E3,5.465E3,2.76E2,6.435E3,3.07E2,9.6E1,5.6E1,6.28E3,3.178E3,5.9E3,2.769E3,3.306E3,1.67E2,3E2,1.79E2,2.38E2,9.8E1,6.33E2,2.57E2,2.92E2,1.61E2,5.27E2,3.26E2,1.181E3,6.31E2,1.376E3,6.79E2,1.66E3,8.4E2,1.64E2,8.2E1,5.77E2,2.25E2,1.368E3,5.8E1,3.777E3,1.918E3,5.88E2,2.89E2,1.112E3,6.3E1,6.73E2,2.72E2,1.978E3,3.16E2,1.09E2,5.6E1,1.797E3,1.376E3,5.26E2,1.268E3,1.424E3,4.041E3,5.6E1,2.2E2,1.56E3,4.875E3,6.8E1,2.39E2,2.462E3,3.818E3,2.914E3,2.64E2,2.875E3,3.025E3,2.272E3,4.97E2,3.57E2,2.949E3,1.06E2,6.1E1,1.87E2,1.13E2,1.12E2,6.7E1,1.66E2,7.2E1,4.54E2,1.79E2,1.28E2,1.29E2,1.19E2,1.73E2,7.9E1,8.2E1,2.29E2,2.98E2,7.3E1,2.53E2,6.96E2,4.85E2,1.56E2,4.75E2,3.54E2,1.022E3,1.29E2,5.5E2,3.63E2,1.297E3,5.37E2,3.03E2,1.08E2,5.6E1,4.25E2,1.52E2,1.28E2,9.7E1,8.59E2,5.09E2,3.661E3,1.16E2,1.35E3,5.68E2,4.89E2,9.9E1,2.21E2,6.8E1,9.7E1,1.015E3,2.16E2,4.57E2,7.2E1,2E2,1.539E3,4.39E2,2.33E2,8.3E1,1.277E3,5.2E2,1.048E3,3.28E2,3.67E2,1.59E2,9.64E2,3.04E2,1.188E3,2.36E2,2.973E3,1.068E3,1.64E2,5.6E1,1.252E3,3.08E2,3.279E3,1.596E3,1.69E2,7E1,1.739E3,7.23E2,2.198E3,1.62E3,1.857E3,1.057E3,1.91E2,7.3E1,2.097E3,7.78E2,1.899E3,1.126E3,1.578E3,6.94E2,3.32E2,1.65E2,2.51E2,1.06E2,2.072E3,8.77E2,1.21E2,6.6E1,5.7E1,5.6E1,1.1E2,5.6E1,3.18E2,1.36E2,1.21E2,5.8E1,6.1E1,6.7E1,6.9E1,6E1,1.16E2,5.7E1,1.7E2,5.9E1,2.01E2,9.7E1,1.4E2,1.13E2,4.4E2,2.56E2,3.53E2,1.32E2,9.4E1,6.2E1,3.59E2,1.16E2,2.87E2,6.7E1,7.57E2,2.65E2,7.3E1,5.6E1,3.53E2,1.97E2,2.84E2,7.9E1,8.07E2,4.9E2,3.47E2,1.9E2,1.76E2,1.27E2,3E2,1.25E2,9.2E1,6E1,7.2E1,5.6E1,6.51E2,2.08E2,3.2E2,1.89E2,2.586E3,1.075E3,9.49E2,4.01E2,3.85E2,1.83E2,2.88E2,2.01E2,1.54E2,6.7E1,6.79E2,3.36E2,1.59E2,5.7E1,2.77E2,1.8E2,1.08E2,9.2E1,9.51E2,5.88E2,2.4E2,1.99E2,8.12E2,1.52E2,8.78E2,3.1E2,2.026E3,9.47E2,9.73E2,2.79E2,2.18E2,9E1,2.222E3,1.057E3,1.597E3,2.6E2,1.368E3,2.1E2,1.95E2,5.6E1,1.401E3,6.71E2,4.9E2,1.61E2,2.48E2,7.2E1,8.34E2,1.15E2,4.59E2,2.2E2,2.3E2,1.06E2],"tree_param":{"num_deleted":"0","num_feature":"14","num_nodes":"405","size_leaf_vector":"0"}},{"base_weights":[7.087056E4,7.19536E4,5.8013312E4],"categories":[],"categories_nodes":[],"categories_segments":[],"categories_sizes":[],"default_left":[true,false,false],"id":6,"left_children":[1,-1,-1],"loss_changes":[2.9821166E12,0E0,0E0],"parents":[2147483647,0,0],"right_children":[2,-1,-1],"split_conditions":[5E-1,2.1586082E4,1.7403994E4],"split_indices":[3,0,0],"split_type":[0,0,0],"sum_hessian":[2.142E5,1.97558E5,1.6642E4],"tree_param":{"num_deleted":"0","num_feature":"14","num_nodes":"3","size_leaf_vector":"0"}},{"base_weights":[4.89689E4,4.9606453E4,4.1402297E4,5.1207844E4,3.5388277E4,4.6482016E4,2.5764229E4,5.363592E4,4.5316867E4,3.576014E4,6.432441E3,4.5187883E4,5.714577E4,2.4162877E4,4.086988E4,1.0738391E4,6.3457777E4,4.3793965E4,-1.966044E4,-1.0023459E2,3.9219695E4,1.0685634E5,6.2943438E3,-7.5143643E3,4.3154793E4,4.7863465E4,7.753645E4,-1.7169252E4,-2.3634344E4,-1.3856687E4,2.2600979E4,2.1510912E4,6.354702E4,-1.7173002E4,4.11319E4,3.032031E4,-1.4573297E4,1.2743205E5,3.9272324E4,5.8098965E4,3.994182E4,9.62838E4,4.3557066E4,-8.0944297E3,-7.543366E4,1.2909946E4,6.3388684E4,4.902253E4,8.230758E3,1.0608398E5,3.9767547E4,4.124926E4,-7.332407E4,1.4539532E4,3.4644062E4,-2.1681686E4,-1.3151067E4,5.802022E4,3.5267637E4,5.5904695E4,8.511445E4,4.2214445E4,1.5643862E4,1.0016306E5,4.5306043E4,4.5298645E4,5.7728296E3,3.4519945E4,7.232352E4,1.1463568E4,-2.0373465E4,1.20423055E5,8.3069766E4,5.000195E4,1.9028416E4,3.6067934E4,2.972422E4,-1.7981822E4,-2.9917773E4,-7.1503057E3,-2.91887E4,5.4616246E4,7.013337E4,4.3618492E4,6.454353E3,5.485573E4,6.132638E4,4.0762543E4,4.7004977E4,1.1010864E4,2.8661217E4,1.01181734E5,9.528149E4,2.7773293E4,1.5593216E4,5.103753E4,7.1330336E4,4.186299E4,3.52746E4,4.399134E4,6.317959E4,9.763614E4,1.156837E5,1.0366216E5,6.8258516E4,-1.1360882E4,4.6474816E4],"categories":[],"categories_nodes":[],"categories_segments":[],"categories_sizes":[],"default_left":[true,true,true,true,true,true,true,false,false,true,true,false,false,true,true,true,true,false,true,true,true,false,true,false,false,false,false,false,false,false,false,false,false,false,false,true,true,false,true,true,true,true,true,false,false,false,false,true,true,true,true,false,false,false,true,true,true,true,true,true,false,true,true,true,false,false,false,false,false,false,false,false,false,false,true,false,false,false,false,false,false,false,false,false,false,true,false,true,true,false,false,true,true,false,true,false,false,false,false,false,false,false,false,false,false,false,false],"id":7,"left_children":[1,3,5,7,9,11,13,-1,-1,15,17,-1,-1,19,21,23,25,-1,27,29,31,-1,33,35,37,39,41,-1,-1,43,45,47,49,51,-1,53,55,-1,57,59,61,63,65,-1,-1,-1,-1,67,69,71,73,-1,-1,-1,75,77,79,81,83,85,-1,87,89,91,-1,-1,-1,-1,-1,-1,-1,-1,-1,-1,93,-1,-1,-1,-1,-1,-1,-1,-1,-1,-1,95,-1,97,99,-1,-1,101,103,-1,105,-1,-1,-1,-1,-1,-1,-1,-1,-1,-1,-1,-1],"loss_changes":[1.0306244E12,4.4872006E12,1.3190709E12,2.5333932E12,2.147966E11,1.7266062E11,9.83774E10,0E0,0E0,1.3651568E13,2.4687446E11,0E0,0E0,1.3451744E12,8.899954E11,6.1235014E12,2.0521052E12,0E0,1.424937E9,4.4040546E11,9.786758E11,0E0,2.094844E11,1.7683761E12,1.2192228E12,3.5939628E11,3.1292444E12,0E0,0E0,3.115016E11,2.102327E11,4.804416E11,9.6760575E11,5.0271044E11,0E0,7.097457E10,5.6377737E10,0E0,2.6733393E11,1.14110235E11,1.3802904E11,6.255469E11,1.149352E11,0E0,0E0,0E0,0E0,1.4435857E11,8.206397E10,1.1196616E11,1.30229535E11,0E0,0E0,0E0,5.588386E9,2.8275048E10,4.4749246E11,2.537331E10,7.0668255E11,9.754903E9,0E0,1.5665463E10,1.2873884E10,1.340919E10,0E0,0E0,0E0,0E0,0E0,0E0,0E0,0E0,0E0,0E0,6.047179E9,0E0,0E0,0E0,0E0,0E0,0E0,0E0,0E0,0E0,0E0,9.396499E10,0E0,1.0418651E10,2.5537675E10,0E0,0E0,1.2362711E11,1.1463295E11,0E0,1.21700516E11,0E0,0E0,0E0,0E0,0E0,0E0,0E0,0E0,0E0,0E0,0E0,0E0],"parents":[2147483647,0,0,1,1,2,2,3,3,4,4,5,5,6,6,9,9,10,10,13,13,14,14,15,15,16,16,18,18,19,19,20,20,22,22,23,23,24,24,25,25,26,26,29,29,30,30,31,31,32,32,33,33,35,35,36,36,38,38,39,39,40,40,41,41,42,42,47,47,48,48,49,49,50,50,54,54,55,55,56,56,57,57,58,58,59,59,61,61,62,62,63,63,74,74,85,85,87,87,88,88,91,91,92,92,94,94],"right_children":[2,4,6,8,10,12,14,-1,-1,16,18,-1,-1,20,22,24,26,-1,28,30,32,-1,34,36,38,40,42,-1,-1,44,46,48,50,52,-1,54,56,-1,58,60,62,64,66,-1,-1,-1,-1,68,70,72,74,-1,-1,-1,76,78,80,82,84,86,-1,88,90,92,-1,-1,-1,-1,-1,-1,-1,-1,-1,-1,94,-1,-1,-1,-1,-1,-1,-1,-1,-1,-1,96,-1,98,100,-1,-1,102,104,-1,106,-1,-1,-1,-1,-1,-1,-1,-1,-1,-1,-1,-1],"split_conditions":[5E-1,5E-1,5E-1,5E-1,2.5E0,1.5E0,1.5E0,1.6090777E4,1.3595061E4,2.5E0,2.5E0,1.3556365E4,1.7143732E4,1.5E0,1.5E0,5E-1,5E-1,1.313819E4,5E-1,5E-1,5E-1,3.2056904E4,5E-1,-2.7865E3,-4.961E3,-2.1905E3,-9.4E1,-5.150776E3,-7.090303E3,-2.055E2,-2.77E2,-1.4645E3,-1.1555E3,-1.245E3,1.233957E4,1.5E0,1.5E0,3.8229617E4,1.5E0,4.5E0,4.5E0,4.5E0,4.5E0,-2.428329E3,-2.2630098E4,3.8729841E3,1.9016605E4,2.5E0,3.5E0,2.5E0,2.5E0,1.2374779E4,-2.1997223E4,4.36186E3,5E-1,5E-1,5E-1,5E-1,5E-1,5E-1,2.5534338E4,5E-1,5E-1,5E-1,1.3591813E4,1.3589594E4,1.731849E3,1.0355984E4,2.1697059E4,3.4390706E3,-6.1120396E3,3.6126918E4,2.4920932E4,1.5000585E4,5E-1,1.0820381E4,8.917267E3,-5.394547E3,-8.975332E3,-2.1450918E3,-8.75661E3,1.6384875E4,2.1040012E4,1.3085548E4,1.936306E3,3.5E0,1.8397914E4,3.5E0,3.5E0,3.3032595E3,8.598365E3,3.5E0,3.5E0,8.331988E3,3.5E0,1.531126E4,2.1399102E4,1.2558897E4,1.0582381E4,1.3197402E4,1.8953877E4,2.9290844E4,3.4705113E4,3.1098648E4,2.0477555E4,-3.4082646E3,1.3942445E4],"split_indices":[3,11,11,13,13,13,13,0,0,11,11,0,0,11,11,7,7,0,7,7,7,0,7,2,2,2,2,0,0,2,2,2,2,2,0,11,11,0,11,11,11,11,11,0,0,0,0,11,11,11,11,0,0,0,5,5,5,5,5,5,0,5,5,5,0,0,0,0,0,0,0,0,0,0,5,0,0,0,0,0,0,0,0,0,0,11,0,11,11,0,0,11,11,0,11,0,0,0,0,0,0,0,0,0,0,0,0],"split_type":[0,0,0,0,0,0,0,0,0,0,0,0,0,0,0,0,0,0,0,0,0,0,0,0,0,0,0,0,0,0,0,0,0,0,0,0,0,0,0,0,0,0,0,0,0,0,0,0,0,0,0,0,0,0,0,0,0,0,0,0,0,0,0,0,0,0,0,0,0,0,0,0,0,0,0,0,0,0,0,0,0,0,0,0,0,0,0,0,0,0,0,0,0,0,0,0,0,0,0,0,0,0,0,0,0,0,0],"sum_hessian":[2.13693E5,1.97086E5,1.6607E4,1.77135E5,1.9951E4,1.2535E4,4.072E3,1.25434E5,5.1701E4,1.9698E4,2.53E2,1.1179E4,1.356E3,3.682E3,3.9E2,1.0349E4,9.349E3,1.04E2,1.49E2,1.41E3,2.272E3,1.34E2,2.56E2,6.621E3,3.728E3,4.436E3,4.913E3,9.2E1,5.7E1,8.78E2,5.32E2,1.315E3,9.57E2,1.53E2,1.03E2,1.041E3,5.58E3,1.64E2,3.564E3,1.935E3,2.501E3,3.166E3,1.747E3,8.03E2,7.5E1,4.3E2,1.02E2,4.28E2,8.87E2,3.43E2,6.14E2,7.5E1,7.8E1,2.24E2,8.17E2,9.3E2,4.65E3,6.27E2,2.937E3,1.79E3,1.45E2,2.287E3,2.14E2,2.942E3,2.24E2,1.67E3,7.7E1,2.64E2,1.64E2,7.97E2,9E1,2.11E2,1.32E2,4.11E2,2.03E2,6.33E2,1.84E2,6.42E2,2.88E2,3.384E3,1.266E3,4.9E2,1.37E2,2.277E3,6.6E2,1.501E3,2.89E2,1.756E3,5.31E2,1.58E2,5.6E1,2.432E3,5.1E2,5.7E1,1.46E2,1.219E3,2.82E2,1.462E3,2.94E2,4.48E2,8.3E1,1.955E3,4.77E2,3.89E2,1.21E2,7.8E1,6.8E1],"tree_param":{"num_deleted":"0","num_feature":"14","num_nodes":"107","size_leaf_vector":"0"}},{"base_weights":[3.448536E4,3.679651E4,2.6756498E4,4.887203E4,2.977113E4,3.978859E4,1.8995479E4,3.35428E4,8.251622E4,1.7362082E4,6.1742277E4,2.5698268E4,7.889687E4,6.639219E3,5.0164773E4],"categories":[],"categories_nodes":[],"categories_segments":[],"categories_sizes":[],"default_left":[true,false,false,true,true,true,true,false,false,false,false,false,false,false,false],"id":8,"left_children":[1,3,5,7,9,11,13,-1,-1,-1,-1,-1,-1,-1,-1],"loss_changes":[3.8312283E12,1.4007465E13,4.993818E12,3.132058E13,4.1413123E13,1.0155083E13,1.1918422E13,0E0,0E0,0E0,0E0,0E0,0E0,0E0,0E0],"parents":[2147483647,0,0,1,1,2,2,3,3,4,4,5,5,6,6],"right_children":[2,4,6,8,10,12,14,-1,-1,-1,-1,-1,-1,-1,-1],"split_conditions":[5E-1,-1.8875E3,-1.8225E3,5E-1,5E-1,5E-1,5E-1,1.0062841E4,2.4754867E4,5.208625E3,1.8522684E4,7.7094805E3,2.366906E4,1.9917659E3,1.5049433E4],"split_indices":[5,2,2,1,1,1,1,0,0,0,0,0,0,0,0],"split_type":[0,0,0,0,0,0,0,0,0,0,0,0,0,0,0],"sum_hessian":[2.14491E5,1.65116E5,4.9375E4,6.073E4,1.04386E5,1.8429E4,3.0946E4,4.1721E4,1.9009E4,7.5199E4,2.9187E4,1.3548E4,4.881E3,2.2161E4,8.785E3],"tree_param":{"num_deleted":"0","num_feature":"14","num_nodes":"15","size_leaf_vector":"0"}},{"base_weights":[2.4154441E4,3.8872332E4,2.061437E4,1.6541924E4,4.530577E4,1.7103873E3,2.446015E4,4.3531934E3,4.516527E4,3.7397742E4,6.36286E4,-8.862122E3,2.3240055E4,1.8739205E4,3.7512824E4,7.0484736E3,-5.6796167E3,4.7202227E4,3.917701E4,3.797449E4,3.4615844E4,6.422686E4,6.1280637E4,-6.212169E3,-1.36837295E4,2.4893643E4,2.0713951E4,2.0611217E4,1.1020705E4,3.668752E4,3.989957E4,4.0535918E4,-8.869391E2,-6.80206E4,1.4211013E3,8.504142E4,3.3470547E4,6.1288215E4,5.800912E3,4.4964668E4,3.0300873E4,7.9632805E4,2.9118154E4,6.610643E4,2.1022707E4,5.8220133E4,1.5395844E5,-8.424171E3,1.0577871E4,5.096779E4,-1.4447589E4,1.8769559E4,6.0190055E4,6.1917566E4,1.7527082E4,2.3356857E4,1.3384818E4,1.2688756E4,-1.5246385E4,1.6019762E4,4.5264754E4,5.0200684E4,2.7685977E4,6.2239586E4,3.3177098E4,5.5156203E4,1.6658309E4,3.9970957E4,8.891935E4,5.932996E4,1.3665598E4,9.0954914E4,5.1157734E4,9.831462E4,-1.8380445E4,7.9983086E4,3.0738479E4,5.488721E4,1.775393E4,2.8031244E4,6.362442E2,3.7635895E4,4.7858975E3,8.496381E3,-2.2321719E4,1.6246793E4,-1.8619814E4,8.351574E4,2.951714E4,9.9950305E4,3.233953E4,4.269897E4,1.5776856E4,1.5414847E4,5.1244917E3,6.868926E4,1.29226336E5,2.4758229E4,5.4836246E4,5.5310508E4,1.6162376E4,1.7271434E4,4.4390246E4,2.8152969E4,1.5351836E4,1.5965878E2,4.745584E4,3.8791652E4,3.5052215E4,5.2173096E3,3.7656787E3,1.7700766E4,-4.2474297E3,-1.5787582E4,-3.325386E4,1.5632833E4,3.6606285E4,8.4254914E4,2.5275512E4,2.9153736E4,5.9749902E4,9.511344E4,1.0835748E5,3.079015E4,3.526771E4,4.2263246E4,4.3250637E4,2.1284172E4,8.2119795E3,7.0817217E3,3.646604E4,2.1420152E4,-3.87691E4,8.741048E4,4.1945617E4,3.695995E4,1.6711269E5,4.645276E4,1.7545373E4,7.081408E4,3.237983E4,2.6336701E4,7.621985E4,1.770672E4,-4.7449224E3,4.041454E4,7.1820445E4,1.1958542E4,3.4350523E4,-6.050071E3,1.3849025E4,1.4141592E4,5.9627164E4,2.2045479E4,6.4340668E4,1.7169509E3,1.5501997E4,3.0611033E3,5.316583E4,-1.4172175E4,6.5441645E4,-6.9503716E3,-4.447434E4,-3.8314285E4,-1.0491159E4,4.46742E4,1.5425414E4,3.8744367E4,1.2150409E5,4.6746938E4,2.189185E4,1.0945244E5,1.9719936E4,5.2251363E4,1.3720478E5,7.907304E4,1.713955E5,3.303525E4,-2.006852E4,3.945917E4,-3.1166283E4,3.4182902E4,4.6278773E4,6.2985445E4,2.0435936E4,2.4324559E4,-2.7643348E4,1.9457416E3,2.9460938E4,8.679185E3,-2.225142E4,9.537746E4,4.7956445E4,2.4329443E4,-1.1263591E4,2.3918893E4,6.724419E4,7.522349E4,1.5866833E5,1.7552928E4,2.2805713E4,-4.1243936E3,-1.3992605E4,1.0092367E4,8.306739E4,3.7251152E4,-3.089435E3,-6.5975938E3,1.0820602E4,1.5969027E4,-1.0095743E4,1.6657248E4,-1.7704533E4,6.3550617E4,-1.1667909E4,2.7046467E4,2.1946584E3,9.92533E2,3.2046736E4,1.874495E4,-3.1854957E4,1.4796062E3,8.0938086E4,-4.3330223E4,-1.9580545E4,1.6269879E4,9.324328E3,4.3125117E4,2.3479016E4,1.3282931E5,6.669819E4,5.721193E4,1.3901669E4,2.704436E4,5.4230845E3,4.8927598E4,6.5212207E4,1.4112236E5,1.16875195E5,9.2627086E4,5.4558586E4,2.2559572E5,4.8503734E4,4.5492164E4,-2.1434771E4,3.7220797E4,7.262167E4,4.761866E4,-4.655401E3,6.0126203E4,4.7254487E3,9.9828555E4,1.1012688E4,3.0303605E4,7.2182827E3,2.0158682E4,8.14541E4,1.252106E4,-2.8241482E4,5.388655E4,-1.0102558E4,-1.4030687E3,1.8619738E4,6.805202E4,1.375093E5,-1.2697044E4,3.9904848E4,8.4279234E4,7.101064E4,1.7072773E4,3.1272906E4,2.676164E4,1.0158045E4,-5.1236207E4,3.9492145E4,5.7299258E4,2.3121697E4,4.3880562E4,-3.1562012E4,-1.51529E4,-3.662058E3,-8.505024E3,6.0286504E4,2.3052768E4,-9.547558E3,7.625033E4,-3.1530018E4,6.088791E4,6.4799348E4,1.9849854E4,5.4818996E4,1.0812522E4,-5.371732E3,8.015419E4,-1.6872338E3,2.4320273E4,-9.406269E3,-6.86171E3,-5.357122E4,3.0680366E3,-3.490539E4,-5.3376332E4,-3.4292363E4,1.6132472E4,3.2515064E4,1.1887034E5,1.4017548E5,6.12962E4,7.0296805E4,2.5223783E4,1.684934E5,3.0641182E3,6.570625E4,1.3236527E5,1.455784E5,4.0066234E4,6.857453E4,-2.8433986E4,3.6801357E3,3.0839629E4,1.1300528E5,4.4193855E4,5.8297367E4,6.689314E4,1.8794212E5,-2.6077418E4,7.189399E4,1.8691094E4,2.9744088E4,2.0773002E4,-2.375926E4,-2.7664688E4,-3.0007072E4,8.258941E4,8.586284E3,-4.435722E4,9.423475E4,-7.23517E4,6.25524E4,2.2837541E4,1.3708956E5,8.498404E4,1.7619303E5,-5.3368086E4,3.3697695E4,9.451967E3,1.286264E5,4.7749215E4,1.9474786E5,1.9950562E4,1.4621902E5,-1.040199E4,1.1252977E5,-7.203369E4,6.4604582E4,-1.1439994E4,1.2408195E5,-6.4274176E4,5.1755723E4,-8.4392625E4,5.2072684E4,-3.012097E4,9.1096086E4,-2.3685402E4,1.0440277E5,-4.4296875E4,5.7605938E4,-1.5056568E4,1.8446102E5,-6.48968E4,1.6005211E4,-5.3617125E4,2.099139E4,-7.052186E4,2.1707584E4,-7.628025E4,5.637066E4,4.6996016E3,2.3407155E5,-4.9605434E4,1.0166085E5,-7.840497E4,-6.847027E3,2.5129129E4,2.2392169E5,-3.0224773E3,1.2558371E5,-2.1580076E4,8.9677414E4,-1.4661478E4,1.3906233E5,-2.4277611E4,5.8383883E4,-3.3152418E4,6.757165E4,-3.9062945E4,9.112408E4,-3.3515582E4,1.109685E5,-3.470972E4,6.2999777E4,-9.357497E4,6.1939406E4,-5.752659E4,-1.0982147E4,2.39348E3,1.2281786E5,6.029567E4,2.3231733E5,8.62857E4,2.6442938E5,2.995252E3,1.9206414E5,4.6281567E3,1.2706132E5,-3.782874E4,6.4060113E4,-1.6286899E4,7.1234055E4,7.873842E4,1.979033E5,4.840269E4,2.7522678E5,-3.219202E4,7.0118805E4,2.853042E4,1.3732338E5,-4.711428E4,3.0045324E4,-1.9722188E4,1.08549664E5,-1.6514852E4,2.0989916E5,-3.5887402E4,1.3267505E5,-7.279161E4,2.6425717E4,4.348579E3,2.8251244E5,-9.412433E3,7.544841E4,-3.3919797E4,8.314653E4,-6.876577E4,1.4780018E4,-8.188901E4,8.433537E4],"categories":[],"categories_nodes":[],"categories_segments":[],"categories_sizes":[],"default_left":[false,true,true,true,true,true,true,true,true,true,true,true,true,true,true,false,false,false,false,false,false,false,false,false,false,false,false,true,false,true,false,false,false,false,false,false,false,false,false,true,true,true,true,true,true,true,false,false,false,false,false,false,false,false,false,true,true,true,true,true,true,true,true,false,false,false,false,false,false,false,true,false,false,false,false,true,true,true,true,true,true,true,true,true,true,true,false,true,true,true,true,true,true,true,true,true,true,true,true,true,false,true,true,true,false,true,false,true,true,true,true,true,false,true,true,true,false,true,false,true,true,true,true,true,true,true,true,true,true,true,false,false,false,true,false,false,false,false,true,false,false,true,true,true,true,false,false,true,true,true,true,true,true,true,false,true,true,true,false,false,false,false,false,true,false,false,true,true,true,true,true,false,false,true,true,true,true,true,false,true,false,true,true,true,true,true,false,true,true,true,false,true,false,true,false,false,false,true,false,true,true,true,false,false,false,true,true,true,true,true,true,false,false,true,false,true,false,true,true,true,true,true,false,true,false,true,false,false,false,true,true,false,false,true,true,false,false,true,false,false,false,false,false,true,true,true,false,true,false,false,false,true,true,false,false,true,false,true,true,true,false,true,true,true,true,true,true,true,true,true,true,true,true,true,true,true,true,true,true,true,true,true,false,true,true,false,true,true,true,true,true,true,true,false,false,true,true,false,false,true,true,false,true,true,false,true,true,true,true,true,false,true,false,true,true,true,true,true,false,true,false,true,false,true,false,true,false,true,true,true,true,true,false,false,false,false,false,false,false,false,false,false,false,false,false,false,false,false,false,false,false,false,false,false,false,false,false,false,false,false,false,false,false,false,false,false,false,false,false,false,false,false,false,false,false,false,false,false,false,false,false,false,false,false,false,false,false,false,false,false,false,false,false,false,false,false,false,false,false,false,false,false,false,false,false,false,false,false,false,false,false,false,false,false,false,false,false,false,false,false,false,false,false,false,false,false,false,false,false,false,false,false,false,false,false,false,false,false,false,false,false,false,false,false,false,false,false],"id":9,"left_children":[1,3,5,7,9,11,13,15,17,19,21,23,25,27,29,31,33,35,37,39,41,43,45,47,49,51,53,55,57,59,61,-1,-1,-1,-1,-1,-1,-1,-1,63,65,67,69,71,73,75,-1,-1,-1,-1,-1,-1,-1,-1,-1,77,79,81,83,85,87,89,91,-1,-1,-1,-1,-1,-1,-1,93,-1,-1,-1,-1,95,97,99,101,103,105,107,109,111,113,115,-1,117,119,121,123,125,127,129,131,133,135,137,139,141,-1,143,145,147,-1,149,-1,151,153,155,157,159,-1,161,163,165,-1,167,-1,169,171,173,175,177,179,181,183,185,187,189,-1,-1,-1,191,-1,-1,-1,-1,193,-1,-1,195,197,199,201,-1,-1,203,205,207,209,211,213,215,-1,217,219,221,-1,-1,-1,-1,-1,223,-1,-1,225,227,229,231,233,-1,-1,235,237,239,241,243,-1,245,-1,247,249,251,253,255,-1,257,259,261,-1,263,-1,265,-1,-1,-1,267,-1,269,271,273,-1,-1,-1,275,277,279,281,283,285,-1,-1,287,-1,289,-1,291,293,295,297,299,-1,301,-1,303,-1,-1,-1,305,307,-1,-1,309,311,-1,-1,313,-1,-1,-1,-1,-1,315,317,319,-1,321,-1,-1,-1,323,325,-1,-1,327,-1,329,331,333,-1,335,337,339,341,343,345,347,349,351,353,355,357,359,361,363,365,367,369,371,373,375,-1,377,379,-1,381,383,385,387,389,391,393,-1,-1,395,397,-1,-1,399,401,-1,403,405,-1,407,409,411,413,415,-1,417,-1,419,421,423,425,427,-1,429,-1,431,-1,433,-1,435,-1,437,439,441,443,445,-1,-1,-1,-1,-1,-1,-1,-1,-1,-1,-1,-1,-1,-1,-1,-1,-1,-1,-1,-1,-1,-1,-1,-1,-1,-1,-1,-1,-1,-1,-1,-1,-1,-1,-1,-1,-1,-1,-1,-1,-1,-1,-1,-1,-1,-1,-1,-1,-1,-1,-1,-1,-1,-1,-1,-1,-1,-1,-1,-1,-1,-1,-1,-1,-1,-1,-1,-1,-1,-1,-1,-1,-1,-1,-1,-1,-1,-1,-1,-1,-1,-1,-1,-1,-1,-1,-1,-1,-1,-1,-1,-1,-1,-1,-1,-1,-1,-1,-1,-1,-1,-1,-1,-1,-1,-1,-1,-1,-1,-1,-1,-1,-1,-1,-1],"loss_changes":[1.1163618E13,5.9681926E12,1.2556916E13,3.241833E12,4.6729496E12,6.64618E12,1.0717302E13,1.7623623E11,3.3616298E10,3.5980837E10,1.3161726E10,2.5019063E11,4.010279E10,1.4418067E12,8.5966455E10,1.3651276E12,6.10947E11,1.07526855E12,5.203283E11,1.0007022E12,9.575213E11,6.288499E11,5.596591E11,4.6934904E11,3.4307598E11,1.2559794E12,4.995158E11,1.5933825E12,8.534554E11,5.761275E12,1.4134825E12,0E0,0E0,0E0,0E0,0E0,0E0,0E0,0E0,1.9880015E12,3.0161355E12,1.5466024E11,1.610121E12,2.7567503E12,9.843253E11,1.1444934E12,0E0,0E0,0E0,0E0,0E0,0E0,0E0,0E0,0E0,1.0281114E13,4.1287974E12,3.610873E12,1.9541531E11,7.5001496E10,1.3834811E13,5.415633E12,9.191044E11,0E0,0E0,0E0,0E0,0E0,0E0,0E0,3.4086158E10,0E0,0E0,0E0,0E0,5.929089E11,1.2176399E11,1.4382688E11,6.349935E11,1.5826682E10,2.6379246E11,1.2984517E10,6.119391E9,3.1343186E10,6.3945736E10,1.1830323E11,0E0,2.8808158E11,1.785337E11,6.4170754E10,2.0210778E10,3.1535923E8,1.1942855E11,3.322392E11,2.777224E11,4.3468456E11,6.952924E11,1.06009756E11,6.003435E10,5.262004E12,0E0,4.65163E11,9.550509E10,1.02288903E12,0E0,9.9486145E11,0E0,1.5628328E12,5.1909978E11,3.519021E11,1.4387234E11,2.3616456E11,0E0,1.4221258E11,3.8551945E10,5.528984E10,0E0,1.1211874E13,0E0,2.0538825E12,3.8396966E11,1.844939E12,1.08213934E12,3.3511073E11,4.3207544E11,4.120589E10,4.4923722E11,2.4689443E11,1.6085603E11,6.3617495E10,0E0,0E0,0E0,1.6008321E11,0E0,0E0,0E0,0E0,9.9539436E10,0E0,0E0,3.5992738E11,4.1293762E11,3.727478E10,5.3932995E9,0E0,0E0,3.742618E11,8.005144E11,7.437789E10,1.8541314E11,1.11726264E11,4.613923E11,9.371943E10,0E0,1.6023647E11,3.8127147E11,5.0200963E11,0E0,0E0,0E0,0E0,0E0,2.5651511E10,0E0,0E0,4.7010152E10,1.989631E11,2.2564013E12,1.6144212E12,9.656473E11,0E0,0E0,2.1442593E10,3.9017513E10,1.3264277E11,1.2383593E12,1.9068743E12,0E0,1.0796899E11,0E0,2.2134663E11,4.9028334E11,1.02454146E12,6.037671E10,3.7156966E11,0E0,2.9793563E11,2.65941E11,1.2900325E11,0E0,4.8825106E11,0E0,2.3773857E11,0E0,0E0,0E0,1.8942735E11,0E0,3.0430305E11,6.9668176E10,1.8128977E12,0E0,0E0,0E0,1.9377108E12,7.0914376E11,1.9583828E11,2.420437E11,6.0647657E11,5.502159E11,0E0,0E0,4.698145E9,0E0,1.505881E11,0E0,4.451815E11,2.7610795E11,3.6464866E11,8.632099E10,2.3091205E11,0E0,1.9391578E10,0E0,1.783169E10,0E0,0E0,0E0,3.069769E11,1.156789E10,0E0,0E0,2.2316675E12,3.856551E11,0E0,0E0,1.4423163E10,0E0,0E0,0E0,0E0,0E0,2.8609924E11,9.1970896E10,6.6069253E11,0E0,1.1198857E10,0E0,0E0,0E0,9.071197E11,5.0182003E11,0E0,0E0,2.0413612E10,0E0,2.0697412E11,1.4147584E8,2.211168E11,0E0,2.6260876E12,2.590887E12,8.053449E11,3.3768446E11,2.3067102E11,7.837179E11,6.38337E12,1.3068132E13,1.1707858E14,5.3795876E12,3.945231E12,1.028754E12,1.4533397E12,1.6460807E12,1.0788661E13,9.330354E12,1.6584822E12,5.2359453E11,2.7697207E12,9.8486E12,8.013484E11,0E0,1.0170489E13,3.2487315E12,0E0,2.7544778E11,2.9208E12,4.378672E12,1.7334888E12,9.082553E11,4.6760597E12,8.758715E12,0E0,0E0,8.2111785E12,1.1152649E12,0E0,0E0,8.667487E12,9.503208E11,0E0,6.1730374E10,1.1654325E13,0E0,6.909992E12,1.3215891E13,1.9068659E12,1.3908106E12,2.0956834E13,0E0,3.4433152E12,0E0,5.151182E11,3.5905308E12,4.0222644E12,1.1974014E12,4.4711343E11,0E0,4.95544E12,0E0,2.4059938E12,0E0,1.5429892E12,0E0,3.390185E11,0E0,4.77934E12,3.4571354E11,1.9213974E12,2.2236663E11,1.1190982E12,0E0,0E0,0E0,0E0,0E0,0E0,0E0,0E0,0E0,0E0,0E0,0E0,0E0,0E0,0E0,0E0,0E0,0E0,0E0,0E0,0E0,0E0,0E0,0E0,0E0,0E0,0E0,0E0,0E0,0E0,0E0,0E0,0E0,0E0,0E0,0E0,0E0,0E0,0E0,0E0,0E0,0E0,0E0,0E0,0E0,0E0,0E0,0E0,0E0,0E0,0E0,0E0,0E0,0E0,0E0,0E0,0E0,0E0,0E0,0E0,0E0,0E0,0E0,0E0,0E0,0E0,0E0,0E0,0E0,0E0,0E0,0E0,0E0,0E0,0E0,0E0,0E0,0E0,0E0,0E0,0E0,0E0,0E0,0E0,0E0,0E0,0E0,0E0,0E0,0E0,0E0,0E0,0E0,0E0,0E0,0E0,0E0,0E0,0E0,0E0,0E0,0E0,0E0,0E0,0E0,0E0,0E0,0E0,0E0,0E0,0E0,0E0,0E0,0E0,0E0],"parents":[2147483647,0,0,1,1,2,2,3,3,4,4,5,5,6,6,7,7,8,8,9,9,10,10,11,11,12,12,13,13,14,14,15,15,16,16,17,17,18,18,19,19,20,20,21,21,22,22,23,23,24,24,25,25,26,26,27,27,28,28,29,29,30,30,39,39,40,40,41,41,42,42,43,43,44,44,45,45,55,55,56,56,57,57,58,58,59,59,60,60,61,61,62,62,70,70,75,75,76,76,77,77,78,78,79,79,80,80,81,81,82,82,83,83,84,84,85,85,87,87,88,88,89,89,90,90,91,91,92,92,93,93,94,94,95,95,96,96,97,97,98,98,99,99,101,101,102,102,103,103,105,105,107,107,108,108,109,109,110,110,111,111,113,113,114,114,115,115,117,117,119,119,120,120,121,121,122,122,123,123,124,124,125,125,126,126,127,127,128,128,129,129,133,133,138,138,141,141,142,142,143,143,144,144,147,147,148,148,149,149,150,150,151,151,152,152,153,153,155,155,156,156,157,157,163,163,166,166,167,167,168,168,169,169,170,170,173,173,174,174,175,175,176,176,177,177,179,179,181,181,182,182,183,183,184,184,185,185,187,187,188,188,189,189,191,191,193,193,197,197,199,199,200,200,201,201,205,205,206,206,207,207,208,208,209,209,210,210,213,213,215,215,217,217,218,218,219,219,220,220,221,221,223,223,225,225,229,229,230,230,233,233,234,234,237,237,243,243,244,244,245,245,247,247,251,251,252,252,255,255,257,257,258,258,259,259,261,261,262,262,263,263,264,264,265,265,266,266,267,267,268,268,269,269,270,270,271,271,272,272,273,273,274,274,275,275,276,276,277,277,278,278,279,279,280,280,281,281,283,283,284,284,286,286,287,287,288,288,289,289,290,290,291,291,292,292,295,295,296,296,299,299,300,300,302,302,303,303,305,305,306,306,307,307,308,308,309,309,311,311,313,313,314,314,315,315,316,316,317,317,319,319,321,321,323,323,325,325,327,327,328,328,329,329,330,330,331,331],"right_children":[2,4,6,8,10,12,14,16,18,20,22,24,26,28,30,32,34,36,38,40,42,44,46,48,50,52,54,56,58,60,62,-1,-1,-1,-1,-1,-1,-1,-1,64,66,68,70,72,74,76,-1,-1,-1,-1,-1,-1,-1,-1,-1,78,80,82,84,86,88,90,92,-1,-1,-1,-1,-1,-1,-1,94,-1,-1,-1,-1,96,98,100,102,104,106,108,110,112,114,116,-1,118,120,122,124,126,128,130,132,134,136,138,140,142,-1,144,146,148,-1,150,-1,152,154,156,158,160,-1,162,164,166,-1,168,-1,170,172,174,176,178,180,182,184,186,188,190,-1,-1,-1,192,-1,-1,-1,-1,194,-1,-1,196,198,200,202,-1,-1,